<?xml version="1.0"?>
<opencv_storage>
<stage11>
  <maxWeakCount>52</maxWeakCount>
  <stageThreshold>-1.8122287988662720e+00</stageThreshold>
  <weakClassifiers>
    <_>
      <internalNodes>
        0 -1 72437 4.1010925173759460e-01</internalNodes>
      <leafValues>
        -3.7360179424285889e-01 4.0350878238677979e-01</leafValues></_>
    <_>
      <internalNodes>
        0 -1 107606 -1.6825698316097260e-02</internalNodes>
      <leafValues>
        1.5044425427913666e-01 -4.6843701601028442e-01</leafValues></_>
    <_>
      <internalNodes>
        0 -1 13477 -1.1753530241549015e-02</internalNodes>
      <leafValues>
        9.9315531551837921e-02 -5.1671534776687622e-01</leafValues></_>
    <_>
      <internalNodes>
        0 -1 4844 3.5974425077438354e-01</internalNodes>
      <leafValues>
        -1.2223161756992340e-01 4.1977956891059875e-01</leafValues></_>
    <_>
      <internalNodes>
        0 -1 106970 -3.0298048257827759e-01</internalNodes>
      <leafValues>
        6.1700421571731567e-01 -1.1928629130125046e-01</leafValues></_>
    <_>
      <internalNodes>
        0 -1 95850 3.1819254159927368e-01</internalNodes>
      <leafValues>
        -4.3427173048257828e-02 8.6488926410675049e-01</leafValues></_>
    <_>
      <internalNodes>
        0 -1 108520 4.3026544153690338e-03</internalNodes>
      <leafValues>
        -2.2480188310146332e-01 2.3855465650558472e-01</leafValues></_>
    <_>
      <internalNodes>
        0 -1 6808 -1.4360713958740234e-01</internalNodes>
      <leafValues>
        5.0365072488784790e-01 -8.2207001745700836e-02</leafValues></_>
    <_>
      <internalNodes>
        0 -1 87451 -1.6349110007286072e-01</internalNodes>
      <leafValues>
        1.4013968408107758e-01 -4.0350648760795593e-01</leafValues></_>
    <_>
      <internalNodes>
        0 -1 63 1.1917969211935997e-02</internalNodes>
      <leafValues>
        8.2772284746170044e-02 -5.2257168292999268e-01</leafValues></_>
    <_>
      <internalNodes>
        0 -1 1938 -1.2134514749050140e-02</internalNodes>
      <leafValues>
        -6.8321985006332397e-01 7.2284601628780365e-02</leafValues></_>
    <_>
      <internalNodes>
        0 -1 22136 3.1357416883111000e-03</internalNodes>
      <leafValues>
        -2.9761776328086853e-01 1.5796098113059998e-01</leafValues></_>
    <_>
      <internalNodes>
        0 -1 686 -1.4250287413597107e-01</internalNodes>
      <leafValues>
        5.9111773967742920e-01 -7.2537258267402649e-02</leafValues></_>
    <_>
      <internalNodes>
        0 -1 72479 -3.4565450623631477e-03</internalNodes>
      <leafValues>
        -7.8890323638916016e-01 5.5655252188444138e-02</leafValues></_>
    <_>
      <internalNodes>
        0 -1 9626 1.0385481640696526e-02</internalNodes>
      <leafValues>
        9.2076055705547333e-02 -4.0846577286720276e-01</leafValues></_>
    <_>
      <internalNodes>
        0 -1 113329 7.4638645164668560e-03</internalNodes>
      <leafValues>
        -1.4598920941352844e-01 2.5693342089653015e-01</leafValues></_>
    <_>
      <internalNodes>
        0 -1 113329 -7.4582444503903389e-03</internalNodes>
      <leafValues>
        3.0816996097564697e-01 -1.5683260560035706e-01</leafValues></_>
    <_>
      <internalNodes>
        0 -1 18666 -8.5013821721076965e-02</internalNodes>
      <leafValues>
        -5.5678462982177734e-01 7.0248067378997803e-02</leafValues></_>
    <_>
      <internalNodes>
        0 -1 124917 -1.2112614698708057e-02</internalNodes>
      <leafValues>
        -6.0601556301116943e-01 5.6108653545379639e-02</leafValues></_>
    <_>
      <internalNodes>
        0 -1 100974 -1.0817468911409378e-01</internalNodes>
      <leafValues>
        5.2885073423385620e-01 -7.8635111451148987e-02</leafValues></_>
    <_>
      <internalNodes>
        0 -1 74604 -7.5405398383736610e-03</internalNodes>
      <leafValues>
        -6.2074792385101318e-01 6.8234309554100037e-02</leafValues></_>
    <_>
      <internalNodes>
        0 -1 4611 -3.7876158952713013e-01</internalNodes>
      <leafValues>
        6.4632296562194824e-01 -6.2233652919530869e-02</leafValues></_>
    <_>
      <internalNodes>
        0 -1 18429 -2.5111135095357895e-02</internalNodes>
      <leafValues>
        2.4473115801811218e-01 -1.8557769060134888e-01</leafValues></_>
    <_>
      <internalNodes>
        0 -1 46977 -9.3183026183396578e-04</internalNodes>
      <leafValues>
        -1.8644270300865173e-01 2.0163828134536743e-01</leafValues></_>
    <_>
      <internalNodes>
        0 -1 47125 2.1758310496807098e-02</internalNodes>
      <leafValues>
        3.4410707652568817e-02 -8.9354085922241211e-01</leafValues></_>
    <_>
      <internalNodes>
        0 -1 5740 1.0076621174812317e-01</internalNodes>
      <leafValues>
        2.7957897633314133e-02 -8.8493412733078003e-01</leafValues></_>
    <_>
      <internalNodes>
        0 -1 109044 8.3249481394886971e-03</internalNodes>
      <leafValues>
        4.4521309435367584e-02 -6.4618211984634399e-01</leafValues></_>
    <_>
      <internalNodes>
        0 -1 16222 4.2698718607425690e-03</internalNodes>
      <leafValues>
        6.9785900413990021e-02 -4.3866127729415894e-01</leafValues></_>
    <_>
      <internalNodes>
        0 -1 77366 6.3781079370528460e-04</internalNodes>
      <leafValues>
        1.3526819646358490e-01 -2.2826801240444183e-01</leafValues></_>
    <_>
      <internalNodes>
        0 -1 111007 -1.5731971710920334e-02</internalNodes>
      <leafValues>
        -3.0353724956512451e-01 1.0754853487014771e-01</leafValues></_>
    <_>
      <internalNodes>
        0 -1 118352 -2.6284292107447982e-04</internalNodes>
      <leafValues>
        2.9987716674804688e-01 -1.0972468554973602e-01</leafValues></_>
    <_>
      <internalNodes>
        0 -1 54164 1.5918379649519920e-02</internalNodes>
      <leafValues>
        3.6228999495506287e-02 -8.5459762811660767e-01</leafValues></_>
    <_>
      <internalNodes>
        0 -1 27177 -7.7358521521091461e-03</internalNodes>
      <leafValues>
        -7.7082282304763794e-01 2.9890619218349457e-02</leafValues></_>
    <_>
      <internalNodes>
        0 -1 103360 -9.3917131423950195e-02</internalNodes>
      <leafValues>
        4.6979308128356934e-01 -7.3158182203769684e-02</leafValues></_>
    <_>
      <internalNodes>
        0 -1 79997 1.3140141963958740e-02</internalNodes>
      <leafValues>
        7.0165731012821198e-02 -5.0039064884185791e-01</leafValues></_>
    <_>
      <internalNodes>
        0 -1 108006 -5.8857817202806473e-03</internalNodes>
      <leafValues>
        -7.0781600475311279e-01 3.9490133523941040e-02</leafValues></_>
    <_>
      <internalNodes>
        0 -1 330 -4.1594299674034119e-01</internalNodes>
      <leafValues>
        6.8376129865646362e-01 -5.2922546863555908e-02</leafValues></_>
    <_>
      <internalNodes>
        0 -1 100447 3.8668921589851379e-01</internalNodes>
      <leafValues>
        -1.0090287029743195e-01 3.2139974832534790e-01</leafValues></_>
    <_>
      <internalNodes>
        0 -1 730 -5.0236046314239502e-02</internalNodes>
      <leafValues>
        -5.8896273374557495e-01 5.7883039116859436e-02</leafValues></_>
    <_>
      <internalNodes>
        0 -1 21208 -7.3287524282932281e-03</internalNodes>
      <leafValues>
        3.3497563004493713e-01 -9.6036747097969055e-02</leafValues></_>
    <_>
      <internalNodes>
        0 -1 951 -1.4763039350509644e-01</internalNodes>
      <leafValues>
        -1. 3.5789962857961655e-02</leafValues></_>
    <_>
      <internalNodes>
        0 -1 94836 -3.7333384156227112e-02</internalNodes>
      <leafValues>
        4.4535037875175476e-01 -1.0214852541685104e-01</leafValues></_>
    <_>
      <internalNodes>
        0 -1 115232 2.1454591304063797e-02</internalNodes>
      <leafValues>
        4.7149464488029480e-02 -6.6045802831649780e-01</leafValues></_>
    <_>
      <internalNodes>
        0 -1 112991 -3.2507278025150299e-02</internalNodes>
      <leafValues>
        1.9815354049205780e-01 -1.6114366054534912e-01</leafValues></_>
    <_>
      <internalNodes>
        0 -1 39103 1.8163137137889862e-01</internalNodes>
      <leafValues>
        -9.4754852354526520e-02 3.4493714570999146e-01</leafValues></_>
    <_>
      <internalNodes>
        0 -1 14064 -1.4075458049774170e-02</internalNodes>
      <leafValues>
        3.0090469121932983e-01 -1.3339276611804962e-01</leafValues></_>
    <_>
      <internalNodes>
        0 -1 95892 3.2324245572090149e-01</internalNodes>
      <leafValues>
        -5.7788632810115814e-02 6.4184391498565674e-01</leafValues></_>
    <_>
      <internalNodes>
        0 -1 33604 3.8893814198672771e-03</internalNodes>
      <leafValues>
        -9.7932793200016022e-02 3.0664762854576111e-01</leafValues></_>
    <_>
      <internalNodes>
        0 -1 1241 -6.1074838042259216e-02</internalNodes>
      <leafValues>
        1.5005955100059509e-01 -2.1447867155075073e-01</leafValues></_>
    <_>
      <internalNodes>
        0 -1 121355 1.0013875551521778e-02</internalNodes>
      <leafValues>
        3.6997731775045395e-02 -8.0355411767959595e-01</leafValues></_>
    <_>
      <internalNodes>
        0 -1 5864 -8.1934973597526550e-02</internalNodes>
      <leafValues>
        -5.4656440019607544e-01 4.6165436506271362e-02</leafValues></_>
    <_>
      <internalNodes>
        0 -1 6964 1.5335879288613796e-03</internalNodes>
      <leafValues>
        -7.6313771307468414e-02 4.3103086948394775e-01</leafValues></_></weakClassifiers></stage11>
</opencv_storage>
