<?xml version="1.0"?>
<opencv_storage>
<stage9>
  <maxWeakCount>38</maxWeakCount>
  <stageThreshold>-1.8550702333450317e+00</stageThreshold>
  <weakClassifiers>
    <_>
      <internalNodes>
        0 -1 3961 3.4767985343933105e-01</internalNodes>
      <leafValues>
        -7.0476973056793213e-01 -1.5179392881691456e-02</leafValues></_>
    <_>
      <internalNodes>
        0 -1 73212 3.8990384340286255e-01</internalNodes>
      <leafValues>
        -1.5771546959877014e-01 6.2871831655502319e-01</leafValues></_>
    <_>
      <internalNodes>
        0 -1 82479 3.2190105319023132e-01</internalNodes>
      <leafValues>
        -7.7559538185596466e-02 7.3379737138748169e-01</leafValues></_>
    <_>
      <internalNodes>
        0 -1 25509 -4.9457047134637833e-03</internalNodes>
      <leafValues>
        3.9923638105392456e-01 -1.8921594321727753e-01</leafValues></_>
    <_>
      <internalNodes>
        0 -1 112618 -1.0267786681652069e-02</internalNodes>
      <leafValues>
        1.3776221871376038e-01 -4.6635824441909790e-01</leafValues></_>
    <_>
      <internalNodes>
        0 -1 730 5.9737753123044968e-02</internalNodes>
      <leafValues>
        7.3920361697673798e-02 -8.0677473545074463e-01</leafValues></_>
    <_>
      <internalNodes>
        0 -1 74057 -3.0936029553413391e-01</internalNodes>
      <leafValues>
        7.0993328094482422e-01 -9.8371326923370361e-02</leafValues></_>
    <_>
      <internalNodes>
        0 -1 3915 6.9574904441833496e-01</internalNodes>
      <leafValues>
        -1.8599404394626617e-01 3.8615965843200684e-01</leafValues></_>
    <_>
      <internalNodes>
        0 -1 6808 1.3808088004589081e-01</internalNodes>
      <leafValues>
        -1.4537821710109711e-01 5.4040372371673584e-01</leafValues></_>
    <_>
      <internalNodes>
        0 -1 101916 3.1873694062232971e-01</internalNodes>
      <leafValues>
        -1.0273876041173935e-01 6.9388961791992188e-01</leafValues></_>
    <_>
      <internalNodes>
        0 -1 106970 -3.2197517156600952e-01</internalNodes>
      <leafValues>
        7.4499088525772095e-01 -7.9279035329818726e-02</leafValues></_>
    <_>
      <internalNodes>
        0 -1 22770 1.7986540496349335e-01</internalNodes>
      <leafValues>
        -8.0470412969589233e-02 4.6671691536903381e-01</leafValues></_>
    <_>
      <internalNodes>
        0 -1 5110 -7.9906899482011795e-03</internalNodes>
      <leafValues>
        -7.1088397502899170e-01 5.7951122522354126e-02</leafValues></_>
    <_>
      <internalNodes>
        0 -1 114038 2.8927461244165897e-03</internalNodes>
      <leafValues>
        -3.4501656889915466e-01 1.3573047518730164e-01</leafValues></_>
    <_>
      <internalNodes>
        0 -1 94836 -5.9231437742710114e-02</internalNodes>
      <leafValues>
        5.1534491777420044e-01 -9.7776100039482117e-02</leafValues></_>
    <_>
      <internalNodes>
        0 -1 10345 2.5768518447875977e-01</internalNodes>
      <leafValues>
        5.8376498520374298e-02 -8.4096962213516235e-01</leafValues></_>
    <_>
      <internalNodes>
        0 -1 121207 -5.5656451731920242e-03</internalNodes>
      <leafValues>
        -5.5631279945373535e-01 7.4488177895545959e-02</leafValues></_>
    <_>
      <internalNodes>
        0 -1 4453 -6.1925556510686874e-03</internalNodes>
      <leafValues>
        9.5208473503589630e-02 -4.5157656073570251e-01</leafValues></_>
    <_>
      <internalNodes>
        0 -1 10868 -9.9656268954277039e-02</internalNodes>
      <leafValues>
        -8.9159810543060303e-01 4.7635529190301895e-02</leafValues></_>
    <_>
      <internalNodes>
        0 -1 64065 -1.4842047356069088e-02</internalNodes>
      <leafValues>
        -6.7165750265121460e-01 4.9115851521492004e-02</leafValues></_>
    <_>
      <internalNodes>
        0 -1 123673 1.9972817972302437e-02</internalNodes>
      <leafValues>
        4.7502707690000534e-02 -7.0163214206695557e-01</leafValues></_>
    <_>
      <internalNodes>
        0 -1 20805 -7.3452875018119812e-02</internalNodes>
      <leafValues>
        4.7555303573608398e-01 -8.4133565425872803e-02</leafValues></_>
    <_>
      <internalNodes>
        0 -1 1462 1.9499652087688446e-02</internalNodes>
      <leafValues>
        -2.0970094203948975e-01 2.4139469861984253e-01</leafValues></_>
    <_>
      <internalNodes>
        0 -1 53206 1.7586341500282288e-01</internalNodes>
      <leafValues>
        -9.3217454850673676e-02 4.5365244150161743e-01</leafValues></_>
    <_>
      <internalNodes>
        0 -1 6119 2.0763200521469116e-01</internalNodes>
      <leafValues>
        -1.3656817376613617e-01 3.3631339669227600e-01</leafValues></_>
    <_>
      <internalNodes>
        0 -1 116747 -2.6200234889984131e-02</internalNodes>
      <leafValues>
        5.3021669387817383e-01 -8.7306283414363861e-02</leafValues></_>
    <_>
      <internalNodes>
        0 -1 101791 -2.9841300100088120e-02</internalNodes>
      <leafValues>
        1.5568150579929352e-01 -2.8610533475875854e-01</leafValues></_>
    <_>
      <internalNodes>
        0 -1 108235 4.0358453989028931e-03</internalNodes>
      <leafValues>
        -1.4935633540153503e-01 3.2139515876770020e-01</leafValues></_>
    <_>
      <internalNodes>
        0 -1 48290 -2.0111745223402977e-02</internalNodes>
      <leafValues>
        -6.3106495141983032e-01 7.3770560324192047e-02</leafValues></_>
    <_>
      <internalNodes>
        0 -1 117770 -1.9516546744853258e-03</internalNodes>
      <leafValues>
        -7.9593199491500854e-01 3.8507416844367981e-02</leafValues></_>
    <_>
      <internalNodes>
        0 -1 86865 -7.9519692808389664e-03</internalNodes>
      <leafValues>
        -6.1991363763809204e-01 5.0882469862699509e-02</leafValues></_>
    <_>
      <internalNodes>
        0 -1 50839 -3.4771600365638733e-01</internalNodes>
      <leafValues>
        3.6198380589485168e-01 -1.0341864079236984e-01</leafValues></_>
    <_>
      <internalNodes>
        0 -1 76763 1.1337179690599442e-02</internalNodes>
      <leafValues>
        -2.4723941087722778e-01 1.6585259139537811e-01</leafValues></_>
    <_>
      <internalNodes>
        0 -1 10453 2.4799864739179611e-02</internalNodes>
      <leafValues>
        -1.4778298139572144e-01 2.5359633564949036e-01</leafValues></_>
    <_>
      <internalNodes>
        0 -1 64558 -1.7552908509969711e-02</internalNodes>
      <leafValues>
        -6.8351405858993530e-01 5.9688020497560501e-02</leafValues></_>
    <_>
      <internalNodes>
        0 -1 28886 1.0566127486526966e-02</internalNodes>
      <leafValues>
        2.9802333563566208e-02 -8.9562720060348511e-01</leafValues></_>
    <_>
      <internalNodes>
        0 -1 3721 -3.7451453506946564e-02</internalNodes>
      <leafValues>
        1.3641569018363953e-01 -2.6098433136940002e-01</leafValues></_>
    <_>
      <internalNodes>
        0 -1 80481 -2.6434902101755142e-02</internalNodes>
      <leafValues>
        5.5062806606292725e-01 -7.5962141156196594e-02</leafValues></_></weakClassifiers></stage9>
</opencv_storage>
