<?xml version="1.0"?>
<opencv_storage>
<stage4>
  <maxWeakCount>20</maxWeakCount>
  <stageThreshold>-2.4124372005462646e+00</stageThreshold>
  <weakClassifiers>
    <_>
      <internalNodes>
        0 -1 12990 7.1499371528625488e-01</internalNodes>
      <leafValues>
        -8.2345914840698242e-01 1.1428571492433548e-01</leafValues></_>
    <_>
      <internalNodes>
        0 -1 58991 1.4844495803117752e-02</internalNodes>
      <leafValues>
        -6.8398779630661011e-01 1.2403170019388199e-01</leafValues></_>
    <_>
      <internalNodes>
        0 -1 51550 -1.8792228400707245e-01</internalNodes>
      <leafValues>
        2.6251122355461121e-01 -5.7909917831420898e-01</leafValues></_>
    <_>
      <internalNodes>
        0 -1 53122 -1.8555305898189545e-01</internalNodes>
      <leafValues>
        9.0689140558242798e-01 -1.4437304437160492e-01</leafValues></_>
    <_>
      <internalNodes>
        0 -1 4683 -5.3138053417205811e-01</internalNodes>
      <leafValues>
        5.3117990493774414e-01 -2.2678814828395844e-01</leafValues></_>
    <_>
      <internalNodes>
        0 -1 16325 1.7632874846458435e-01</internalNodes>
      <leafValues>
        -1.0379748046398163e-01 9.1201484203338623e-01</leafValues></_>
    <_>
      <internalNodes>
        0 -1 53560 -6.1261132359504700e-02</internalNodes>
      <leafValues>
        4.7686165571212769e-01 -2.5620210170745850e-01</leafValues></_>
    <_>
      <internalNodes>
        0 -1 39604 -1.6607254743576050e-02</internalNodes>
      <leafValues>
        2.3194934427738190e-01 -5.1480269432067871e-01</leafValues></_>
    <_>
      <internalNodes>
        0 -1 72978 1.6400858759880066e-02</internalNodes>
      <leafValues>
        1.1183615773916245e-01 -8.2091599702835083e-01</leafValues></_>
    <_>
      <internalNodes>
        0 -1 102377 1.5960033237934113e-01</internalNodes>
      <leafValues>
        -1.4485581219196320e-01 7.9284340143203735e-01</leafValues></_>
    <_>
      <internalNodes>
        0 -1 25132 2.4412205815315247e-01</internalNodes>
      <leafValues>
        -1.0153492540121078e-01 8.5684239864349365e-01</leafValues></_>
    <_>
      <internalNodes>
        0 -1 59201 -2.9449704289436340e-01</internalNodes>
      <leafValues>
        6.5276604890823364e-01 -1.4636445045471191e-01</leafValues></_>
    <_>
      <internalNodes>
        0 -1 31353 -2.7198921889066696e-02</internalNodes>
      <leafValues>
        2.7960112690925598e-01 -3.1935608386993408e-01</leafValues></_>
    <_>
      <internalNodes>
        0 -1 74392 1.2203769758343697e-02</internalNodes>
      <leafValues>
        1.3130281865596771e-01 -6.5080183744430542e-01</leafValues></_>
    <_>
      <internalNodes>
        0 -1 35687 -1.6261471319012344e-04</internalNodes>
      <leafValues>
        6.9915577769279480e-02 -8.3428215980529785e-01</leafValues></_>
    <_>
      <internalNodes>
        0 -1 84639 -1.2393709272146225e-02</internalNodes>
      <leafValues>
        -3.8369819521903992e-01 2.3349399864673615e-01</leafValues></_>
    <_>
      <internalNodes>
        0 -1 60053 -2.5886702537536621e-01</internalNodes>
      <leafValues>
        7.4029237031936646e-01 -1.3094271719455719e-01</leafValues></_>
    <_>
      <internalNodes>
        0 -1 91871 1.2256836052983999e-03</internalNodes>
      <leafValues>
        1.2868346273899078e-01 -7.5919443368911743e-01</leafValues></_>
    <_>
      <internalNodes>
        0 -1 29446 1.9526827335357666e-01</internalNodes>
      <leafValues>
        -1.2663531303405762e-01 7.4329888820648193e-01</leafValues></_>
    <_>
      <internalNodes>
        0 -1 32476 -3.0869251489639282e-01</internalNodes>
      <leafValues>
        6.4056760072708130e-01 -1.3117958605289459e-01</leafValues></_></weakClassifiers></stage4>
</opencv_storage>
