<?xml version="1.0"?>
<opencv_storage>
<stage5>
  <maxWeakCount>18</maxWeakCount>
  <stageThreshold>-2.3361423015594482e+00</stageThreshold>
  <weakClassifiers>
    <_>
      <internalNodes>
        0 -1 201 2.0424554347991943e+00</internalNodes>
      <leafValues>
        -7.9848170280456543e-01 6.0342061519622803e-01</leafValues></_>
    <_>
      <internalNodes>
        0 -1 7855 6.1912376433610916e-02</internalNodes>
      <leafValues>
        -5.6695920228958130e-01 4.4823807477951050e-01</leafValues></_>
    <_>
      <internalNodes>
        0 -1 11973 4.1641466319561005e-02</internalNodes>
      <leafValues>
        -4.9616119265556335e-01 4.0333631634712219e-01</leafValues></_>
    <_>
      <internalNodes>
        0 -1 8749 -6.2527932226657867e-02</internalNodes>
      <leafValues>
        5.8572894334793091e-01 -2.5037115812301636e-01</leafValues></_>
    <_>
      <internalNodes>
        0 -1 5797 -3.9854824542999268e-02</internalNodes>
      <leafValues>
        -7.9335945844650269e-01 1.5288151800632477e-01</leafValues></_>
    <_>
      <internalNodes>
        0 -1 8063 -2.5351300835609436e-01</internalNodes>
      <leafValues>
        5.8490806818008423e-01 -1.9742526113986969e-01</leafValues></_>
    <_>
      <internalNodes>
        0 -1 11415 -9.0887933969497681e-02</internalNodes>
      <leafValues>
        2.8858175873756409e-01 -3.9276459813117981e-01</leafValues></_>
    <_>
      <internalNodes>
        0 -1 1809 -3.0463581904768944e-02</internalNodes>
      <leafValues>
        -9.1525900363922119e-01 1.0175201296806335e-01</leafValues></_>
    <_>
      <internalNodes>
        0 -1 5223 6.0278832912445068e-02</internalNodes>
      <leafValues>
        1.0269416123628616e-01 -7.3830521106719971e-01</leafValues></_>
    <_>
      <internalNodes>
        0 -1 10299 -1.6544780135154724e-01</internalNodes>
      <leafValues>
        8.7470108270645142e-01 -1.4343766868114471e-01</leafValues></_>
    <_>
      <internalNodes>
        0 -1 3337 7.5268134474754333e-02</internalNodes>
      <leafValues>
        -1.3905549049377441e-01 5.7024657726287842e-01</leafValues></_>
    <_>
      <internalNodes>
        0 -1 1822 -6.1837315559387207e-02</internalNodes>
      <leafValues>
        -9.4655358791351318e-01 8.3923175930976868e-02</leafValues></_>
    <_>
      <internalNodes>
        0 -1 345 2.4235010147094727e-01</internalNodes>
      <leafValues>
        -4.8200720548629761e-01 1.3677564263343811e-01</leafValues></_>
    <_>
      <internalNodes>
        0 -1 3634 -1.9114430993795395e-02</internalNodes>
      <leafValues>
        -7.9216730594635010e-01 8.9895360171794891e-02</leafValues></_>
    <_>
      <internalNodes>
        0 -1 10205 -1.8249932676553726e-02</internalNodes>
      <leafValues>
        -7.9960727691650391e-01 5.8944299817085266e-02</leafValues></_>
    <_>
      <internalNodes>
        0 -1 5361 1.3956245034933090e-02</internalNodes>
      <leafValues>
        -4.8029422760009766e-01 1.3483178615570068e-01</leafValues></_>
    <_>
      <internalNodes>
        0 -1 8131 -1.7833150923252106e-03</internalNodes>
      <leafValues>
        3.8160690665245056e-01 -1.8150161206722260e-01</leafValues></_>
    <_>
      <internalNodes>
        0 -1 8774 3.9002902805805206e-02</internalNodes>
      <leafValues>
        1.1321324855089188e-01 -6.6101115942001343e-01</leafValues></_></weakClassifiers></stage5>
</opencv_storage>
