<?xml version="1.0"?>
<opencv_storage>
<stage7>
  <maxWeakCount>83</maxWeakCount>
  <stageThreshold>-1.7693071365356445e+00</stageThreshold>
  <weakClassifiers>
    <_>
      <internalNodes>
        0 -1 81625 1.2041723728179932e-01</internalNodes>
      <leafValues>
        -5.0841152667999268e-01 1.8270571529865265e-01</leafValues></_>
    <_>
      <internalNodes>
        0 -1 2320 3.6264725029468536e-02</internalNodes>
      <leafValues>
        -6.4179503917694092e-01 2.7388166636228561e-02</leafValues></_>
    <_>
      <internalNodes>
        0 -1 4166 -1.6298694908618927e-01</internalNodes>
      <leafValues>
        5.2205485105514526e-01 -5.4995853453874588e-02</leafValues></_>
    <_>
      <internalNodes>
        0 -1 121906 8.7094888091087341e-02</internalNodes>
      <leafValues>
        -9.0138353407382965e-02 5.3281605243682861e-01</leafValues></_>
    <_>
      <internalNodes>
        0 -1 118983 2.5275833904743195e-02</internalNodes>
      <leafValues>
        1.2725433707237244e-01 -3.0387809872627258e-01</leafValues></_>
    <_>
      <internalNodes>
        0 -1 99944 2.1210405975580215e-02</internalNodes>
      <leafValues>
        -2.7308660745620728e-01 1.7016544938087463e-01</leafValues></_>
    <_>
      <internalNodes>
        0 -1 66111 3.7868455052375793e-02</internalNodes>
      <leafValues>
        8.2143723964691162e-02 -4.3260484933853149e-01</leafValues></_>
    <_>
      <internalNodes>
        0 -1 61015 5.1601860672235489e-02</internalNodes>
      <leafValues>
        -9.2037230730056763e-02 4.6490260958671570e-01</leafValues></_>
    <_>
      <internalNodes>
        0 -1 28753 -5.4982937872409821e-03</internalNodes>
      <leafValues>
        -5.7343894243240356e-01 6.7270971834659576e-02</leafValues></_>
    <_>
      <internalNodes>
        0 -1 34357 2.7951234579086304e-01</internalNodes>
      <leafValues>
        -4.8992753028869629e-02 8.0354636907577515e-01</leafValues></_>
    <_>
      <internalNodes>
        0 -1 103262 -3.5488031804561615e-02</internalNodes>
      <leafValues>
        3.2764607667922974e-01 -7.3185101151466370e-02</leafValues></_>
    <_>
      <internalNodes>
        0 -1 100306 5.8853719383478165e-03</internalNodes>
      <leafValues>
        -1.4073844254016876e-01 2.4637687206268311e-01</leafValues></_>
    <_>
      <internalNodes>
        0 -1 6916 -7.8681707382202148e-03</internalNodes>
      <leafValues>
        -3.9501339197158813e-01 7.2768747806549072e-02</leafValues></_>
    <_>
      <internalNodes>
        0 -1 121727 2.9765659943223000e-02</internalNodes>
      <leafValues>
        7.5312092900276184e-02 -3.0419296026229858e-01</leafValues></_>
    <_>
      <internalNodes>
        0 -1 5580 1.4269044995307922e-01</internalNodes>
      <leafValues>
        -6.5569989383220673e-02 5.3350096940994263e-01</leafValues></_>
    <_>
      <internalNodes>
        0 -1 39959 1.4263525605201721e-01</internalNodes>
      <leafValues>
        -3.3064574003219604e-02 6.8894779682159424e-01</leafValues></_>
    <_>
      <internalNodes>
        0 -1 80914 3.9247341454029083e-02</internalNodes>
      <leafValues>
        -1.2932316958904266e-01 2.3846121132373810e-01</leafValues></_>
    <_>
      <internalNodes>
        0 -1 59787 -2.7148729562759399e-01</internalNodes>
      <leafValues>
        5.5507087707519531e-01 -5.8781672269105911e-02</leafValues></_>
    <_>
      <internalNodes>
        0 -1 15039 5.4465360939502716e-02</internalNodes>
      <leafValues>
        -3.5139780491590500e-02 6.2025982141494751e-01</leafValues></_>
    <_>
      <internalNodes>
        0 -1 5316 -1.5871394425630569e-02</internalNodes>
      <leafValues>
        -2.2397382557392120e-01 1.3965080678462982e-01</leafValues></_>
    <_>
      <internalNodes>
        0 -1 55820 2.3933727294206619e-02</internalNodes>
      <leafValues>
        -1.6770184040069580e-01 1.7453221976757050e-01</leafValues></_>
    <_>
      <internalNodes>
        0 -1 51292 2.2223421931266785e-01</internalNodes>
      <leafValues>
        -1.1106997728347778e-01 2.4742199480533600e-01</leafValues></_>
    <_>
      <internalNodes>
        0 -1 70183 -2.2893086075782776e-02</internalNodes>
      <leafValues>
        -6.4670944213867188e-01 3.9484292268753052e-02</leafValues></_>
    <_>
      <internalNodes>
        0 -1 121412 4.7362942132167518e-04</internalNodes>
      <leafValues>
        -1.2309180945158005e-01 1.8693991005420685e-01</leafValues></_>
    <_>
      <internalNodes>
        0 -1 64611 1.7402923107147217e-01</internalNodes>
      <leafValues>
        -3.9674237370491028e-02 5.5118799209594727e-01</leafValues></_>
    <_>
      <internalNodes>
        0 -1 3907 -1.8827652931213379e-01</internalNodes>
      <leafValues>
        3.6535266041755676e-01 -6.1798386275768280e-02</leafValues></_>
    <_>
      <internalNodes>
        0 -1 65803 -1.4989376999437809e-02</internalNodes>
      <leafValues>
        -6.8296307325363159e-01 3.4435559064149857e-02</leafValues></_>
    <_>
      <internalNodes>
        0 -1 394 4.9542505294084549e-03</internalNodes>
      <leafValues>
        3.4689348191022873e-02 -5.5918806791305542e-01</leafValues></_>
    <_>
      <internalNodes>
        0 -1 5733 4.1518431156873703e-02</internalNodes>
      <leafValues>
        9.8251618444919586e-02 -2.1749293804168701e-01</leafValues></_>
    <_>
      <internalNodes>
        0 -1 38846 4.1942983865737915e-02</internalNodes>
      <leafValues>
        -5.4912459850311279e-01 3.8829077035188675e-02</leafValues></_>
    <_>
      <internalNodes>
        0 -1 73006 -1.9511621445417404e-02</internalNodes>
      <leafValues>
        -8.3251374959945679e-01 2.1530482918024063e-02</leafValues></_>
    <_>
      <internalNodes>
        0 -1 961 1.3088522851467133e-01</internalNodes>
      <leafValues>
        2.6581594720482826e-02 -6.3715350627899170e-01</leafValues></_>
    <_>
      <internalNodes>
        0 -1 46435 6.7195962183177471e-03</internalNodes>
      <leafValues>
        3.9484117180109024e-02 -4.4954437017440796e-01</leafValues></_>
    <_>
      <internalNodes>
        0 -1 45902 -5.0081890076398849e-02</internalNodes>
      <leafValues>
        6.8693667650222778e-01 -3.2846823334693909e-02</leafValues></_>
    <_>
      <internalNodes>
        0 -1 47073 1.1260000988841057e-02</internalNodes>
      <leafValues>
        4.8190437257289886e-02 -4.8294740915298462e-01</leafValues></_>
    <_>
      <internalNodes>
        0 -1 93228 6.4756418578326702e-04</internalNodes>
      <leafValues>
        -9.2963717877864838e-02 2.4230208992958069e-01</leafValues></_>
    <_>
      <internalNodes>
        0 -1 28199 3.3796811103820801e-01</internalNodes>
      <leafValues>
        -3.5777047276496887e-02 6.1237466335296631e-01</leafValues></_>
    <_>
      <internalNodes>
        0 -1 11395 2.6525810360908508e-01</internalNodes>
      <leafValues>
        1.2159977853298187e-01 -2.0678937435150146e-01</leafValues></_>
    <_>
      <internalNodes>
        0 -1 3949 8.6146369576454163e-02</internalNodes>
      <leafValues>
        -3.3955147862434387e-01 7.9919852316379547e-02</leafValues></_>
    <_>
      <internalNodes>
        0 -1 7649 -1.4715831726789474e-02</internalNodes>
      <leafValues>
        4.2725163698196411e-01 -5.3416300565004349e-02</leafValues></_>
    <_>
      <internalNodes>
        0 -1 51839 2.3547288775444031e-01</internalNodes>
      <leafValues>
        -9.9513433873653412e-02 2.2335487604141235e-01</leafValues></_>
    <_>
      <internalNodes>
        0 -1 53 -9.2931408435106277e-03</internalNodes>
      <leafValues>
        -3.3275383710861206e-01 6.2098581343889236e-02</leafValues></_>
    <_>
      <internalNodes>
        0 -1 14340 -3.5674899816513062e-01</internalNodes>
      <leafValues>
        5.3835922479629517e-01 -4.1609995067119598e-02</leafValues></_>
    <_>
      <internalNodes>
        0 -1 45383 3.1335495412349701e-02</internalNodes>
      <leafValues>
        3.4625794738531113e-02 -6.8598014116287231e-01</leafValues></_>
    <_>
      <internalNodes>
        0 -1 66577 4.4286334514617920e-01</internalNodes>
      <leafValues>
        2.1681657060980797e-02 -7.2773355245590210e-01</leafValues></_>
    <_>
      <internalNodes>
        0 -1 28789 -1.0208709165453911e-02</internalNodes>
      <leafValues>
        -2.4238748848438263e-01 7.0167437195777893e-02</leafValues></_>
    <_>
      <internalNodes>
        0 -1 93055 -8.9401897275820374e-04</internalNodes>
      <leafValues>
        2.2496201097965240e-01 -1.2155742943286896e-01</leafValues></_>
    <_>
      <internalNodes>
        0 -1 72869 2.9691320657730103e-01</internalNodes>
      <leafValues>
        -3.7495125085115433e-02 4.6270167827606201e-01</leafValues></_>
    <_>
      <internalNodes>
        0 -1 28686 -4.5618945732712746e-03</internalNodes>
      <leafValues>
        -1.6944359242916107e-01 1.0865297168493271e-01</leafValues></_>
    <_>
      <internalNodes>
        0 -1 9922 7.5700115412473679e-03</internalNodes>
      <leafValues>
        3.5303279757499695e-02 -5.4220163822174072e-01</leafValues></_>
    <_>
      <internalNodes>
        0 -1 37182 -9.2843023594468832e-04</internalNodes>
      <leafValues>
        1.9766537845134735e-01 -8.8266603648662567e-02</leafValues></_>
    <_>
      <internalNodes>
        0 -1 124091 4.7163907438516617e-03</internalNodes>
      <leafValues>
        2.3415217176079750e-02 -7.2931224107742310e-01</leafValues></_>
    <_>
      <internalNodes>
        0 -1 51383 -4.7115543484687805e-01</internalNodes>
      <leafValues>
        6.5051418542861938e-01 -3.1623609364032745e-02</leafValues></_>
    <_>
      <internalNodes>
        0 -1 49218 -4.9251638352870941e-02</internalNodes>
      <leafValues>
        -3.6235338449478149e-01 5.2918545901775360e-02</leafValues></_>
    <_>
      <internalNodes>
        0 -1 35610 -8.0779448151588440e-02</internalNodes>
      <leafValues>
        1.9927302002906799e-01 -9.1782338917255402e-02</leafValues></_>
    <_>
      <internalNodes>
        0 -1 56373 4.1353657841682434e-02</internalNodes>
      <leafValues>
        4.1574649512767792e-02 -4.1842815279960632e-01</leafValues></_>
    <_>
      <internalNodes>
        0 -1 9734 1.6702551394701004e-02</internalNodes>
      <leafValues>
        1.5923731029033661e-02 -9.0266132354736328e-01</leafValues></_>
    <_>
      <internalNodes>
        0 -1 37635 2.8347480110824108e-03</internalNodes>
      <leafValues>
        -7.4043609201908112e-02 2.3712846636772156e-01</leafValues></_>
    <_>
      <internalNodes>
        0 -1 46516 -5.1898218225687742e-04</internalNodes>
      <leafValues>
        1.9554710388183594e-01 -9.9676229059696198e-02</leafValues></_>
    <_>
      <internalNodes>
        0 -1 7374 1.9591910764575005e-02</internalNodes>
      <leafValues>
        3.9936929941177368e-02 -4.3119099736213684e-01</leafValues></_>
    <_>
      <internalNodes>
        0 -1 123639 7.7966470271348953e-03</internalNodes>
      <leafValues>
        2.6525188237428665e-02 -5.8224380016326904e-01</leafValues></_>
    <_>
      <internalNodes>
        0 -1 955 -1.5560589730739594e-02</internalNodes>
      <leafValues>
        -9.8693108558654785e-01 1.2973560020327568e-02</leafValues></_>
    <_>
      <internalNodes>
        0 -1 124712 8.4786363004241139e-05</internalNodes>
      <leafValues>
        -1.1459519714117050e-01 1.5187926590442657e-01</leafValues></_>
    <_>
      <internalNodes>
        0 -1 4702 3.4380570054054260e-02</internalNodes>
      <leafValues>
        -5.4011267423629761e-01 3.2269578427076340e-02</leafValues></_>
    <_>
      <internalNodes>
        0 -1 90395 1.1111733317375183e-01</internalNodes>
      <leafValues>
        -6.0371197760105133e-02 2.9016867280006409e-01</leafValues></_>
    <_>
      <internalNodes>
        0 -1 1377 -1.4014579355716705e-02</internalNodes>
      <leafValues>
        2.9574957489967346e-01 -6.6758282482624054e-02</leafValues></_>
    <_>
      <internalNodes>
        0 -1 46418 -1.7799898050725460e-03</internalNodes>
      <leafValues>
        2.4166248738765717e-01 -7.6107479631900787e-02</leafValues></_>
    <_>
      <internalNodes>
        0 -1 65650 -6.5165728330612183e-02</internalNodes>
      <leafValues>
        -5.6522488594055176e-01 3.4238833934068680e-02</leafValues></_>
    <_>
      <internalNodes>
        0 -1 38451 -1.4764477312564850e-01</internalNodes>
      <leafValues>
        3.2618337869644165e-01 -6.4887143671512604e-02</leafValues></_>
    <_>
      <internalNodes>
        0 -1 95671 3.4027524292469025e-02</internalNodes>
      <leafValues>
        1.5529283881187439e-01 -1.2853962182998657e-01</leafValues></_>
    <_>
      <internalNodes>
        0 -1 29817 -7.3672789148986340e-03</internalNodes>
      <leafValues>
        -6.6998267173767090e-01 2.4525856599211693e-02</leafValues></_>
    <_>
      <internalNodes>
        0 -1 75127 -6.5645938739180565e-03</internalNodes>
      <leafValues>
        -4.6970474720001221e-01 3.1698755919933319e-02</leafValues></_>
    <_>
      <internalNodes>
        0 -1 64583 6.6170960664749146e-01</internalNodes>
      <leafValues>
        -6.0408309102058411e-02 3.0403465032577515e-01</leafValues></_>
    <_>
      <internalNodes>
        0 -1 21445 3.2189145684242249e-02</internalNodes>
      <leafValues>
        -9.1466046869754791e-02 1.9597412645816803e-01</leafValues></_>
    <_>
      <internalNodes>
        0 -1 7053 1.7243390902876854e-02</internalNodes>
      <leafValues>
        4.7354925423860550e-02 -4.0879586338996887e-01</leafValues></_>
    <_>
      <internalNodes>
        0 -1 33081 -2.4179373867809772e-03</internalNodes>
      <leafValues>
        1.5981270372867584e-01 -1.2332361936569214e-01</leafValues></_>
    <_>
      <internalNodes>
        0 -1 50013 -7.8468266874551773e-03</internalNodes>
      <leafValues>
        1.9155040383338928e-01 -1.0544925183057785e-01</leafValues></_>
    <_>
      <internalNodes>
        0 -1 123459 -1.2646488845348358e-02</internalNodes>
      <leafValues>
        -3.8069722056388855e-01 4.0605261921882629e-02</leafValues></_>
    <_>
      <internalNodes>
        0 -1 122438 -2.2044427692890167e-02</internalNodes>
      <leafValues>
        -3.7795445322990417e-01 4.6768330037593842e-02</leafValues></_>
    <_>
      <internalNodes>
        0 -1 59228 -3.8753248751163483e-02</internalNodes>
      <leafValues>
        -2.2845712304115295e-01 7.7753156423568726e-02</leafValues></_>
    <_>
      <internalNodes>
        0 -1 65047 3.2290508970618248e-03</internalNodes>
      <leafValues>
        -1.0383161157369614e-01 1.6609239578247070e-01</leafValues></_>
    <_>
      <internalNodes>
        0 -1 33868 5.3470349311828613e-01</internalNodes>
      <leafValues>
        1.8363261595368385e-02 -9.4926148653030396e-01</leafValues></_>
    <_>
      <internalNodes>
        0 -1 4736 1.9613260030746460e-01</internalNodes>
      <leafValues>
        -3.2987147569656372e-02 6.0747301578521729e-01</leafValues></_></weakClassifiers></stage7>
</opencv_storage>
