<?xml version="1.0"?>
<opencv_storage>
<stage6>
  <maxWeakCount>24</maxWeakCount>
  <stageThreshold>-2.2045919895172119e+00</stageThreshold>
  <weakClassifiers>
    <_>
      <internalNodes>
        0 -1 4702 3.3081024885177612e-01</internalNodes>
      <leafValues>
        -7.5632327795028687e-01 1.8993781507015228e-01</leafValues></_>
    <_>
      <internalNodes>
        0 -1 47653 2.0322069525718689e-01</internalNodes>
      <leafValues>
        -3.1171622872352600e-01 4.1424289345741272e-01</leafValues></_>
    <_>
      <internalNodes>
        0 -1 6154 2.5266867876052856e-01</internalNodes>
      <leafValues>
        -2.5303834676742554e-01 6.3507497310638428e-01</leafValues></_>
    <_>
      <internalNodes>
        0 -1 43804 -2.5342091917991638e-01</internalNodes>
      <leafValues>
        5.4518026113510132e-01 -1.6205519437789917e-01</leafValues></_>
    <_>
      <internalNodes>
        0 -1 87417 2.0310272276401520e-01</internalNodes>
      <leafValues>
        -2.4887384474277496e-01 4.9503228068351746e-01</leafValues></_>
    <_>
      <internalNodes>
        0 -1 41396 1.2657892890274525e-02</internalNodes>
      <leafValues>
        -3.0460521578788757e-01 3.1980532407760620e-01</leafValues></_>
    <_>
      <internalNodes>
        0 -1 60643 1.2634631991386414e-01</internalNodes>
      <leafValues>
        -8.6868457496166229e-02 6.9254422187805176e-01</leafValues></_>
    <_>
      <internalNodes>
        0 -1 47887 3.3927595615386963e-01</internalNodes>
      <leafValues>
        -2.1097512543201447e-01 5.8710306882858276e-01</leafValues></_>
    <_>
      <internalNodes>
        0 -1 25222 4.7853401303291321e-01</internalNodes>
      <leafValues>
        -1.4623272418975830e-01 5.4574394226074219e-01</leafValues></_>
    <_>
      <internalNodes>
        0 -1 122213 -7.7169639989733696e-03</internalNodes>
      <leafValues>
        -8.5725516080856323e-01 9.5513246953487396e-02</leafValues></_>
    <_>
      <internalNodes>
        0 -1 124981 -1.1215457692742348e-02</internalNodes>
      <leafValues>
        -7.8858596086502075e-01 4.6920638531446457e-02</leafValues></_>
    <_>
      <internalNodes>
        0 -1 46926 4.5334368944168091e-02</internalNodes>
      <leafValues>
        7.6544195413589478e-02 -7.2484284639358521e-01</leafValues></_>
    <_>
      <internalNodes>
        0 -1 55669 -3.7867236882448196e-02</internalNodes>
      <leafValues>
        -8.6859238147735596e-01 6.8011380732059479e-02</leafValues></_>
    <_>
      <internalNodes>
        0 -1 117263 -3.6363501567393541e-03</internalNodes>
      <leafValues>
        2.8615415096282959e-01 -2.3035162687301636e-01</leafValues></_>
    <_>
      <internalNodes>
        0 -1 96401 -1.4165156520903111e-02</internalNodes>
      <leafValues>
        4.9395817518234253e-01 -1.5016680955886841e-01</leafValues></_>
    <_>
      <internalNodes>
        0 -1 74057 -2.9425537586212158e-01</internalNodes>
      <leafValues>
        6.9148373603820801e-01 -8.1304870545864105e-02</leafValues></_>
    <_>
      <internalNodes>
        0 -1 82479 2.9528260231018066e-01</internalNodes>
      <leafValues>
        -8.6254566907882690e-02 6.7970210313796997e-01</leafValues></_>
    <_>
      <internalNodes>
        0 -1 13642 2.7456372976303101e-01</internalNodes>
      <leafValues>
        -2.6174217462539673e-01 2.8274992108345032e-01</leafValues></_>
    <_>
      <internalNodes>
        0 -1 68083 6.7465752363204956e-02</internalNodes>
      <leafValues>
        -1.4412915706634521e-01 4.9558618664741516e-01</leafValues></_>
    <_>
      <internalNodes>
        0 -1 106970 -2.9152458906173706e-01</internalNodes>
      <leafValues>
        6.7164295911788940e-01 -9.3958273530006409e-02</leafValues></_>
    <_>
      <internalNodes>
        0 -1 102886 -8.8925063610076904e-02</internalNodes>
      <leafValues>
        5.8112722635269165e-01 -9.3703180551528931e-02</leafValues></_>
    <_>
      <internalNodes>
        0 -1 623 3.1078679487109184e-02</internalNodes>
      <leafValues>
        1.0524627566337585e-01 -6.3962340354919434e-01</leafValues></_>
    <_>
      <internalNodes>
        0 -1 184 -2.5263611227273941e-02</internalNodes>
      <leafValues>
        1.4861582219600677e-01 -3.7237030267715454e-01</leafValues></_>
    <_>
      <internalNodes>
        0 -1 47633 -3.8870669901371002e-02</internalNodes>
      <leafValues>
        -8.7702649831771851e-01 5.0618395209312439e-02</leafValues></_></weakClassifiers></stage6>
</opencv_storage>
