<?xml version="1.0"?>
<opencv_storage>
<stage10>
  <maxWeakCount>47</maxWeakCount>
  <stageThreshold>-1.8683196306228638e+00</stageThreshold>
  <weakClassifiers>
    <_>
      <internalNodes>
        0 -1 4702 3.9808702468872070e-01</internalNodes>
      <leafValues>
        -4.8778817057609558e-01 1.4881201088428497e-01</leafValues></_>
    <_>
      <internalNodes>
        0 -1 112201 -1.2031827121973038e-02</internalNodes>
      <leafValues>
        2.3077535629272461e-01 -2.6154524087905884e-01</leafValues></_>
    <_>
      <internalNodes>
        0 -1 35125 -1.6584508121013641e-01</internalNodes>
      <leafValues>
        4.7611191868782043e-01 -1.5689916908740997e-01</leafValues></_>
    <_>
      <internalNodes>
        0 -1 4807 3.1474855542182922e-01</internalNodes>
      <leafValues>
        -2.0318916440010071e-01 3.2050985097885132e-01</leafValues></_>
    <_>
      <internalNodes>
        0 -1 41387 1.2951972894370556e-02</internalNodes>
      <leafValues>
        -2.7546161413192749e-01 2.3466643691062927e-01</leafValues></_>
    <_>
      <internalNodes>
        0 -1 25880 1.3786438107490540e-01</internalNodes>
      <leafValues>
        -9.4521276652812958e-02 4.8989355564117432e-01</leafValues></_>
    <_>
      <internalNodes>
        0 -1 64779 3.1681418418884277e-01</internalNodes>
      <leafValues>
        -1.0313269495964050e-01 4.9933642148971558e-01</leafValues></_>
    <_>
      <internalNodes>
        0 -1 60054 3.3764365315437317e-01</internalNodes>
      <leafValues>
        -1.8470452725887299e-01 5.2015823125839233e-01</leafValues></_>
    <_>
      <internalNodes>
        0 -1 76044 -3.8471525907516479e-01</internalNodes>
      <leafValues>
        8.1909650564193726e-01 -5.0202392041683197e-02</leafValues></_>
    <_>
      <internalNodes>
        0 -1 7170 1.3198477029800415e-01</internalNodes>
      <leafValues>
        -1.0830339044332504e-01 4.5558604598045349e-01</leafValues></_>
    <_>
      <internalNodes>
        0 -1 73304 -3.5269582271575928e-01</internalNodes>
      <leafValues>
        6.7931038141250610e-01 -7.6388373970985413e-02</leafValues></_>
    <_>
      <internalNodes>
        0 -1 4611 -3.4781926870346069e-01</internalNodes>
      <leafValues>
        6.7802888154983521e-01 -5.9777792543172836e-02</leafValues></_>
    <_>
      <internalNodes>
        0 -1 330 -3.7571063637733459e-01</internalNodes>
      <leafValues>
        6.8002784252166748e-01 -6.1380032449960709e-02</leafValues></_>
    <_>
      <internalNodes>
        0 -1 29157 2.2537486627697945e-02</internalNodes>
      <leafValues>
        -2.3517431318759918e-01 2.4105650186538696e-01</leafValues></_>
    <_>
      <internalNodes>
        0 -1 88728 -1.7225328087806702e-01</internalNodes>
      <leafValues>
        1.3969528675079346e-01 -3.2320979237556458e-01</leafValues></_>
    <_>
      <internalNodes>
        0 -1 38165 7.7820811420679092e-03</internalNodes>
      <leafValues>
        6.3623502850532532e-02 -8.4356135129928589e-01</leafValues></_>
    <_>
      <internalNodes>
        0 -1 124619 -5.5930023081600666e-03</internalNodes>
      <leafValues>
        -5.6312584877014160e-01 4.9828562885522842e-02</leafValues></_>
    <_>
      <internalNodes>
        0 -1 123002 5.2153383876429871e-05</internalNodes>
      <leafValues>
        -2.1282772719860077e-01 1.8029505014419556e-01</leafValues></_>
    <_>
      <internalNodes>
        0 -1 119313 -5.1061473786830902e-03</internalNodes>
      <leafValues>
        -4.9665766954421997e-01 7.8523114323616028e-02</leafValues></_>
    <_>
      <internalNodes>
        0 -1 109116 5.0156260840594769e-04</internalNodes>
      <leafValues>
        -1.6294604539871216e-01 2.4390015006065369e-01</leafValues></_>
    <_>
      <internalNodes>
        0 -1 479 3.2019233703613281e-01</internalNodes>
      <leafValues>
        4.6802058815956116e-02 -8.0467140674591064e-01</leafValues></_>
    <_>
      <internalNodes>
        0 -1 3947 1.7866976559162140e-01</internalNodes>
      <leafValues>
        -2.7539092302322388e-01 1.4099435508251190e-01</leafValues></_>
    <_>
      <internalNodes>
        0 -1 76997 4.1828479617834091e-02</internalNodes>
      <leafValues>
        -9.9403865635395050e-02 4.3874436616897583e-01</leafValues></_>
    <_>
      <internalNodes>
        0 -1 102886 -8.5293322801589966e-02</internalNodes>
      <leafValues>
        4.8768422007560730e-01 -6.8569548428058624e-02</leafValues></_>
    <_>
      <internalNodes>
        0 -1 15199 1.7594942450523376e-01</internalNodes>
      <leafValues>
        -5.7352446019649506e-02 6.0766649246215820e-01</leafValues></_>
    <_>
      <internalNodes>
        0 -1 66209 2.8291755914688110e-01</internalNodes>
      <leafValues>
        -6.4506463706493378e-02 5.5100506544113159e-01</leafValues></_>
    <_>
      <internalNodes>
        0 -1 17482 -1.4942816458642483e-02</internalNodes>
      <leafValues>
        -4.9507787823677063e-01 7.4645437300205231e-02</leafValues></_>
    <_>
      <internalNodes>
        0 -1 16544 -8.4493949543684721e-05</internalNodes>
      <leafValues>
        1.6331242024898529e-01 -1.9905517995357513e-01</leafValues></_>
    <_>
      <internalNodes>
        0 -1 11707 -3.0946612358093262e-02</internalNodes>
      <leafValues>
        -9.3120878934860229e-01 3.5572972148656845e-02</leafValues></_>
    <_>
      <internalNodes>
        0 -1 83170 1.6545030521228909e-03</internalNodes>
      <leafValues>
        7.6911143958568573e-02 -3.8076654076576233e-01</leafValues></_>
    <_>
      <internalNodes>
        0 -1 85724 2.8710272163152695e-03</internalNodes>
      <leafValues>
        1.2310992181301117e-01 -2.6747214794158936e-01</leafValues></_>
    <_>
      <internalNodes>
        0 -1 1921 7.6070418581366539e-03</internalNodes>
      <leafValues>
        5.9137407690286636e-02 -5.7354813814163208e-01</leafValues></_>
    <_>
      <internalNodes>
        0 -1 42579 -3.5615602135658264e-01</internalNodes>
      <leafValues>
        3.4714114665985107e-01 -1.0310423374176025e-01</leafValues></_>
    <_>
      <internalNodes>
        0 -1 1623 -4.8437960445880890e-02</internalNodes>
      <leafValues>
        4.4652691483497620e-01 -1.0099186748266220e-01</leafValues></_>
    <_>
      <internalNodes>
        0 -1 492 -1.2881861068308353e-02</internalNodes>
      <leafValues>
        -5.5810320377349854e-01 8.2145281136035919e-02</leafValues></_>
    <_>
      <internalNodes>
        0 -1 19334 -5.3048147819936275e-03</internalNodes>
      <leafValues>
        -4.7045502066612244e-01 6.7460469901561737e-02</leafValues></_>
    <_>
      <internalNodes>
        0 -1 10442 9.5965951681137085e-02</internalNodes>
      <leafValues>
        5.7759098708629608e-02 -5.7776409387588501e-01</leafValues></_>
    <_>
      <internalNodes>
        0 -1 48833 -8.2090665819123387e-04</internalNodes>
      <leafValues>
        3.0673089623451233e-01 -1.1092307418584824e-01</leafValues></_>
    <_>
      <internalNodes>
        0 -1 36611 -5.7948898756876588e-04</internalNodes>
      <leafValues>
        9.3788325786590576e-02 -3.6784678697586060e-01</leafValues></_>
    <_>
      <internalNodes>
        0 -1 110824 3.7133702635765076e-01</internalNodes>
      <leafValues>
        -7.0703923702239990e-02 5.2663242816925049e-01</leafValues></_>
    <_>
      <internalNodes>
        0 -1 6613 1.1030405759811401e-02</internalNodes>
      <leafValues>
        -1.1369370669126511e-01 2.8580230474472046e-01</leafValues></_>
    <_>
      <internalNodes>
        0 -1 34326 -7.3886858299374580e-03</internalNodes>
      <leafValues>
        2.3924013972282410e-01 -1.3550363481044769e-01</leafValues></_>
    <_>
      <internalNodes>
        0 -1 57075 -3.4498763084411621e-01</internalNodes>
      <leafValues>
        5.2728551626205444e-01 -7.6369479298591614e-02</leafValues></_>
    <_>
      <internalNodes>
        0 -1 40033 1.4445912092924118e-02</internalNodes>
      <leafValues>
        5.5876456201076508e-02 -6.6733521223068237e-01</leafValues></_>
    <_>
      <internalNodes>
        0 -1 90613 5.9737474657595158e-03</internalNodes>
      <leafValues>
        9.7737267613410950e-02 -3.3443415164947510e-01</leafValues></_>
    <_>
      <internalNodes>
        0 -1 86000 5.1676790462806821e-04</internalNodes>
      <leafValues>
        1.2210605293512344e-01 -2.8662514686584473e-01</leafValues></_>
    <_>
      <internalNodes>
        0 -1 9828 3.7692569196224213e-02</internalNodes>
      <leafValues>
        5.2920594811439514e-02 -5.8891302347183228e-01</leafValues></_></weakClassifiers></stage10>
</opencv_storage>
