<?xml version="1.0"?>
<opencv_storage>
<stage1>
  <maxWeakCount>9</maxWeakCount>
  <stageThreshold>-2.4922103881835938e+00</stageThreshold>
  <weakClassifiers>
    <_>
      <internalNodes>
        0 -1 13733 3.5388922691345215e-01</internalNodes>
      <leafValues>
        -9.2394751310348511e-01 7.1675771474838257e-01</leafValues></_>
    <_>
      <internalNodes>
        0 -1 56431 2.1389019489288330e-01</internalNodes>
      <leafValues>
        -8.2603937387466431e-01 3.6165305972099304e-01</leafValues></_>
    <_>
      <internalNodes>
        0 -1 41537 2.0762283354997635e-02</internalNodes>
      <leafValues>
        -7.4867594242095947e-01 2.6328563690185547e-01</leafValues></_>
    <_>
      <internalNodes>
        0 -1 42433 -5.5003690719604492e-01</internalNodes>
      <leafValues>
        7.2251349687576294e-01 -2.9999011754989624e-01</leafValues></_>
    <_>
      <internalNodes>
        0 -1 12997 8.7578010559082031e-01</internalNodes>
      <leafValues>
        -2.4786745011806488e-01 8.6383932828903198e-01</leafValues></_>
    <_>
      <internalNodes>
        0 -1 8878 -5.6993491016328335e-03</internalNodes>
      <leafValues>
        3.6795839667320251e-01 -5.5377084016799927e-01</leafValues></_>
    <_>
      <internalNodes>
        0 -1 102842 2.0243574678897858e-01</internalNodes>
      <leafValues>
        -1.2380516529083252e-01 8.9134281873703003e-01</leafValues></_>
    <_>
      <internalNodes>
        0 -1 13684 -4.1607582569122314e-01</internalNodes>
      <leafValues>
        7.9773974418640137e-01 -1.3032445311546326e-01</leafValues></_>
    <_>
      <internalNodes>
        0 -1 40441 -2.0243335515260696e-02</internalNodes>
      <leafValues>
        4.4048115611076355e-01 -3.8417220115661621e-01</leafValues></_></weakClassifiers></stage1>
</opencv_storage>
