<?xml version="1.0"?>
<opencv_storage>
<cascade>
  <stageType>BOOST</stageType>
  <featureType>HAAR</featureType>
  <height>20</height>
  <width>20</width>
  <stageParams>
    <boostType>GAB</boostType>
    <minHitRate>9.9900001287460327e-01</minHitRate>
    <maxFalseAlarm>5.0000000000000000e-01</maxFalseAlarm>
    <weightTrimRate>9.4999999999999996e-01</weightTrimRate>
    <maxDepth>1</maxDepth>
    <maxWeakCount>100</maxWeakCount></stageParams>
  <featureParams>
    <maxCatCount>0</maxCatCount>
    <featSize>1</featSize>
    <mode>ALL</mode></featureParams>
  <stageNum>8</stageNum>
  <stages>
    <!-- stage 0 -->
    <_>
      <maxWeakCount>3</maxWeakCount>
      <stageThreshold>-1.4652533531188965e+00</stageThreshold>
      <weakClassifiers>
        <_>
          <internalNodes>
            0 -1 33 1.1306245625019073e-01</internalNodes>
          <leafValues>
            -9.8644542694091797e-01 9.0712076425552368e-01</leafValues></_>
        <_>
          <internalNodes>
            0 -1 11 8.4879562258720398e-02</internalNodes>
          <leafValues>
            -9.5801079273223877e-01 8.0136042833328247e-01</leafValues></_>
        <_>
          <internalNodes>
            0 -1 25 3.2487064599990845e-01</internalNodes>
          <leafValues>
            -9.6947765350341797e-01 4.7920280694961548e-01</leafValues></_></weakClassifiers></_>
    <!-- stage 1 -->
    <_>
      <maxWeakCount>4</maxWeakCount>
      <stageThreshold>-2.4471385478973389e+00</stageThreshold>
      <weakClassifiers>
        <_>
          <internalNodes>
            0 -1 18 1.1701738834381104e+00</internalNodes>
          <leafValues>
            -9.5056498050689697e-01 5.9527325630187988e-01</leafValues></_>
        <_>
          <internalNodes>
            0 -1 30 4.0410423278808594e-01</internalNodes>
          <leafValues>
            -9.3594336509704590e-01 3.2144930958747864e-01</leafValues></_>
        <_>
          <internalNodes>
            0 -1 7 6.5870434045791626e-02</internalNodes>
          <leafValues>
            -8.2618570327758789e-01 2.7916631102561951e-01</leafValues></_>
        <_>
          <internalNodes>
            0 -1 35 5.3012520074844360e-03</internalNodes>
          <leafValues>
            2.6555547118186951e-01 -9.5243126153945923e-01</leafValues></_></weakClassifiers></_>
    <!-- stage 2 -->
    <_>
      <maxWeakCount>6</maxWeakCount>
      <stageThreshold>-2.9412117004394531e+00</stageThreshold>
      <weakClassifiers>
        <_>
          <internalNodes>
            0 -1 18 1.2979538440704346e+00</internalNodes>
          <leafValues>
            -9.2407405376434326e-01 5.9008264541625977e-01</leafValues></_>
        <_>
          <internalNodes>
            0 -1 30 4.3922966718673706e-01</internalNodes>
          <leafValues>
            -8.6810439825057983e-01 2.3256953060626984e-01</leafValues></_>
        <_>
          <internalNodes>
            0 -1 7 6.6094219684600830e-02</internalNodes>
          <leafValues>
            -8.0367833375930786e-01 3.7710312008857727e-01</leafValues></_>
        <_>
          <internalNodes>
            0 -1 24 3.4824770689010620e-01</internalNodes>
          <leafValues>
            -8.3349436521530151e-01 3.2001248002052307e-01</leafValues></_>
        <_>
          <internalNodes>
            0 -1 13 4.5574968680739403e-03</internalNodes>
          <leafValues>
            3.1142988801002502e-01 -9.1981160640716553e-01</leafValues></_>
        <_>
          <internalNodes>
            0 -1 4 -7.0004034787416458e-03</internalNodes>
          <leafValues>
            -9.8841261863708496e-01 1.7670956254005432e-01</leafValues></_></weakClassifiers></_>
    <!-- stage 3 -->
    <_>
      <maxWeakCount>4</maxWeakCount>
      <stageThreshold>-2.3937335014343262e+00</stageThreshold>
      <weakClassifiers>
        <_>
          <internalNodes>
            0 -1 19 1.2984099388122559e+00</internalNodes>
          <leafValues>
            -9.2199903726577759e-01 4.8678070306777954e-01</leafValues></_>
        <_>
          <internalNodes>
            0 -1 5 3.6781120300292969e-01</internalNodes>
          <leafValues>
            -9.6726030111312866e-01 8.0214284360408783e-02</leafValues></_>
        <_>
          <internalNodes>
            0 -1 9 1.3283112645149231e-01</internalNodes>
          <leafValues>
            -7.0975989103317261e-01 2.5296780467033386e-01</leafValues></_>
        <_>
          <internalNodes>
            0 -1 22 2.7214899659156799e-01</internalNodes>
          <leafValues>
            -1. 2.0528574287891388e-01</leafValues></_></weakClassifiers></_>
    <!-- stage 4 -->
    <_>
      <maxWeakCount>5</maxWeakCount>
      <stageThreshold>-2.3660359382629395e+00</stageThreshold>
      <weakClassifiers>
        <_>
          <internalNodes>
            0 -1 8 2.5158286094665527e-01</internalNodes>
          <leafValues>
            -9.0116012096405029e-01 4.0487805008888245e-01</leafValues></_>
        <_>
          <internalNodes>
            0 -1 10 1.5025059878826141e-01</internalNodes>
          <leafValues>
            -9.2459285259246826e-01 1.0342966765165329e-01</leafValues></_>
        <_>
          <internalNodes>
            0 -1 36 4.5560137368738651e-03</internalNodes>
          <leafValues>
            5.7924836874008179e-02 -9.2676424980163574e-01</leafValues></_>
        <_>
          <internalNodes>
            0 -1 5 3.6781823635101318e-01</internalNodes>
          <leafValues>
            -8.0125105381011963e-01 2.2499170899391174e-01</leafValues></_>
        <_>
          <internalNodes>
            0 -1 15 8.3821164444088936e-03</internalNodes>
          <leafValues>
            2.0304329693317413e-01 -9.6263343095779419e-01</leafValues></_></weakClassifiers></_>
    <!-- stage 5 -->
    <_>
      <maxWeakCount>7</maxWeakCount>
      <stageThreshold>-2.6581938266754150e+00</stageThreshold>
      <weakClassifiers>
        <_>
          <internalNodes>
            0 -1 17 1.8936088085174561e+00</internalNodes>
          <leafValues>
            -8.3308041095733643e-01 6.6666668653488159e-01</leafValues></_>
        <_>
          <internalNodes>
            0 -1 29 4.5296934247016907e-01</internalNodes>
          <leafValues>
            -7.4506026506423950e-01 2.7463597059249878e-01</leafValues></_>
        <_>
          <internalNodes>
            0 -1 34 -6.0818884521722794e-02</internalNodes>
          <leafValues>
            2.7558532357215881e-01 -7.4849236011505127e-01</leafValues></_>
        <_>
          <internalNodes>
            0 -1 0 -3.5322059411555529e-03</internalNodes>
          <leafValues>
            -8.2027620077133179e-01 2.2170704603195190e-01</leafValues></_>
        <_>
          <internalNodes>
            0 -1 1 8.7051000446081161e-03</internalNodes>
          <leafValues>
            1.9175949692726135e-01 -9.2415308952331543e-01</leafValues></_>
        <_>
          <internalNodes>
            0 -1 38 -8.4510259330272675e-03</internalNodes>
          <leafValues>
            -8.6552435159683228e-01 1.6384717822074890e-01</leafValues></_>
        <_>
          <internalNodes>
            0 -1 12 -2.2969184443354607e-02</internalNodes>
          <leafValues>
            -9.9229961633682251e-01 1.3840256631374359e-01</leafValues></_></weakClassifiers></_>
    <!-- stage 6 -->
    <_>
      <maxWeakCount>7</maxWeakCount>
      <stageThreshold>-1.9970753192901611e+00</stageThreshold>
      <weakClassifiers>
        <_>
          <internalNodes>
            0 -1 32 2.7525222301483154e-01</internalNodes>
          <leafValues>
            -8.2117646932601929e-01 8.1599998474121094e-01</leafValues></_>
        <_>
          <internalNodes>
            0 -1 26 3.1619456410408020e-01</internalNodes>
          <leafValues>
            -8.1476038694381714e-01 2.0882678031921387e-01</leafValues></_>
        <_>
          <internalNodes>
            0 -1 6 -1.4542195945978165e-02</internalNodes>
          <leafValues>
            -9.5663022994995117e-01 1.1357540637254715e-01</leafValues></_>
        <_>
          <internalNodes>
            0 -1 37 9.6094459295272827e-03</internalNodes>
          <leafValues>
            1.9413405656814575e-01 -9.5388519763946533e-01</leafValues></_>
        <_>
          <internalNodes>
            0 -1 31 -5.9430398978292942e-03</internalNodes>
          <leafValues>
            -9.2336142063140869e-01 1.3994729518890381e-01</leafValues></_>
        <_>
          <internalNodes>
            0 -1 2 2.9925662092864513e-03</internalNodes>
          <leafValues>
            1.2683705985546112e-01 -9.4435560703277588e-01</leafValues></_>
        <_>
          <internalNodes>
            0 -1 21 9.6044633537530899e-03</internalNodes>
          <leafValues>
            2.1238705515861511e-01 -7.6458400487899780e-01</leafValues></_></weakClassifiers></_>
    <!-- stage 7 -->
    <_>
      <maxWeakCount>8</maxWeakCount>
      <stageThreshold>-2.3206024169921875e+00</stageThreshold>
      <weakClassifiers>
        <_>
          <internalNodes>
            0 -1 20 6.7440497875213623e-01</internalNodes>
          <leafValues>
            -8.2614320516586304e-01 6.7474049329757690e-01</leafValues></_>
        <_>
          <internalNodes>
            0 -1 27 3.3150160312652588e-01</internalNodes>
          <leafValues>
            -8.2429492473602295e-01 1.3583809137344360e-01</leafValues></_>
        <_>
          <internalNodes>
            0 -1 23 6.7193936556577682e-03</internalNodes>
          <leafValues>
            8.9181631803512573e-02 -9.9406927824020386e-01</leafValues></_>
        <_>
          <internalNodes>
            0 -1 14 -5.8602206408977509e-03</internalNodes>
          <leafValues>
            -8.3178007602691650e-01 1.8776951730251312e-01</leafValues></_>
        <_>
          <internalNodes>
            0 -1 16 9.7050974145531654e-03</internalNodes>
          <leafValues>
            1.8342976272106171e-01 -8.1699937582015991e-01</leafValues></_>
        <_>
          <internalNodes>
            0 -1 28 -1.7702086269855499e-01</internalNodes>
          <leafValues>
            8.8908243179321289e-01 -2.2761574387550354e-01</leafValues></_>
        <_>
          <internalNodes>
            0 -1 28 1.8874949216842651e-01</internalNodes>
          <leafValues>
            -1.5224446356296539e-01 9.0684294700622559e-01</leafValues></_>
        <_>
          <internalNodes>
            0 -1 3 -1.0960568673908710e-02</internalNodes>
          <leafValues>
            -7.6119744777679443e-01 2.6886475086212158e-01</leafValues></_></weakClassifiers></_></stages>
  <features>
    <_>
      <rects>
        <_>
          0 0 1 20 -1.</_>
        <_>
          0 5 1 10 2.</_></rects>
      <tilted>0</tilted></_>
    <_>
      <rects>
        <_>
          0 0 2 20 -1.</_>
        <_>
          0 5 2 10 2.</_></rects>
      <tilted>0</tilted></_>
    <_>
      <rects>
        <_>
          0 0 20 1 -1.</_>
        <_>
          5 0 10 1 2.</_></rects>
      <tilted>0</tilted></_>
    <_>
      <rects>
        <_>
          0 0 20 3 -1.</_>
        <_>
          10 0 10 3 2.</_></rects>
      <tilted>0</tilted></_>
    <_>
      <rects>
        <_>
          0 0 20 4 -1.</_>
        <_>
          0 2 20 2 2.</_></rects>
      <tilted>0</tilted></_>
    <_>
      <rects>
        <_>
          0 0 20 20 -1.</_>
        <_>
          0 5 20 10 2.</_></rects>
      <tilted>0</tilted></_>
    <_>
      <rects>
        <_>
          0 2 20 2 -1.</_>
        <_>
          5 2 10 2 2.</_></rects>
      <tilted>0</tilted></_>
    <_>
      <rects>
        <_>
          0 6 8 8 -1.</_>
        <_>
          4 6 4 8 2.</_></rects>
      <tilted>0</tilted></_>
    <_>
      <rects>
        <_>
          0 7 20 5 -1.</_>
        <_>
          5 7 10 5 2.</_></rects>
      <tilted>0</tilted></_>
    <_>
      <rects>
        <_>
          0 8 20 3 -1.</_>
        <_>
          5 8 10 3 2.</_></rects>
      <tilted>0</tilted></_>
    <_>
      <rects>
        <_>
          0 8 20 4 -1.</_>
        <_>
          5 8 10 4 2.</_></rects>
      <tilted>0</tilted></_>
    <_>
      <rects>
        <_>
          0 9 20 2 -1.</_>
        <_>
          5 9 10 2 2.</_></rects>
      <tilted>0</tilted></_>
    <_>
      <rects>
        <_>
          0 16 20 3 -1.</_>
        <_>
          5 16 10 3 2.</_></rects>
      <tilted>0</tilted></_>
    <_>
      <rects>
        <_>
          1 0 1 20 -1.</_>
        <_>
          1 5 1 10 2.</_></rects>
      <tilted>0</tilted></_>
    <_>
      <rects>
        <_>
          1 0 1 20 -1.</_>
        <_>
          1 10 1 10 2.</_></rects>
      <tilted>0</tilted></_>
    <_>
      <rects>
        <_>
          1 1 1 18 -1.</_>
        <_>
          1 7 1 6 3.</_></rects>
      <tilted>0</tilted></_>
    <_>
      <rects>
        <_>
          1 1 2 16 -1.</_>
        <_>
          1 9 2 8 2.</_></rects>
      <tilted>0</tilted></_>
    <_>
      <rects>
        <_>
          1 1 18 18 -1.</_>
        <_>
          7 7 6 6 9.</_></rects>
      <tilted>0</tilted></_>
    <_>
      <rects>
        <_>
          1 2 18 15 -1.</_>
        <_>
          7 7 6 5 9.</_></rects>
      <tilted>0</tilted></_>
    <_>
      <rects>
        <_>
          1 3 18 15 -1.</_>
        <_>
          7 8 6 5 9.</_></rects>
      <tilted>0</tilted></_>
    <_>
      <rects>
        <_>
          1 5 18 10 -1.</_>
        <_>
          7 5 6 10 3.</_></rects>
      <tilted>0</tilted></_>
    <_>
      <rects>
        <_>
          2 0 18 3 -1.</_>
        <_>
          11 0 9 3 2.</_></rects>
      <tilted>0</tilted></_>
    <_>
      <rects>
        <_>
          2 0 15 20 -1.</_>
        <_>
          2 5 15 10 2.</_></rects>
      <tilted>0</tilted></_>
    <_>
      <rects>
        <_>
          2 16 18 4 -1.</_>
        <_>
          2 18 18 2 2.</_></rects>
      <tilted>0</tilted></_>
    <_>
      <rects>
        <_>
          4 0 12 20 -1.</_>
        <_>
          4 5 12 10 2.</_></rects>
      <tilted>0</tilted></_>
    <_>
      <rects>
        <_>
          4 1 12 18 -1.</_>
        <_>
          4 7 12 6 3.</_></rects>
      <tilted>0</tilted></_>
    <_>
      <rects>
        <_>
          4 2 11 16 -1.</_>
        <_>
          4 6 11 8 2.</_></rects>
      <tilted>0</tilted></_>
    <_>
      <rects>
        <_>
          4 2 12 16 -1.</_>
        <_>
          4 6 12 8 2.</_></rects>
      <tilted>0</tilted></_>
    <_>
      <rects>
        <_>
          4 5 12 10 -1.</_>
        <_>
          4 5 6 5 2.</_>
        <_>
          10 10 6 5 2.</_></rects>
      <tilted>0</tilted></_>
    <_>
      <rects>
        <_>
          5 1 8 18 -1.</_>
        <_>
          5 7 8 6 3.</_></rects>
      <tilted>0</tilted></_>
    <_>
      <rects>
        <_>
          6 1 8 18 -1.</_>
        <_>
          6 7 8 6 3.</_></rects>
      <tilted>0</tilted></_>
    <_>
      <rects>
        <_>
          6 18 14 2 -1.</_>
        <_>
          13 18 7 2 2.</_></rects>
      <tilted>0</tilted></_>
    <_>
      <rects>
        <_>
          8 0 4 20 -1.</_>
        <_>
          8 5 4 10 2.</_></rects>
      <tilted>0</tilted></_>
    <_>
      <rects>
        <_>
          9 1 2 18 -1.</_>
        <_>
          9 7 2 6 3.</_></rects>
      <tilted>0</tilted></_>
    <_>
      <rects>
        <_>
          12 2 8 16 -1.</_>
        <_>
          16 2 4 16 2.</_></rects>
      <tilted>0</tilted></_>
    <_>
      <rects>
        <_>
          18 0 1 20 -1.</_>
        <_>
          18 5 1 10 2.</_></rects>
      <tilted>0</tilted></_>
    <_>
      <rects>
        <_>
          18 0 1 12 -1.</_>
        <_>
          18 6 1 6 2.</_></rects>
      <tilted>0</tilted></_>
    <_>
      <rects>
        <_>
          18 0 2 14 -1.</_>
        <_>
          18 7 2 7 2.</_></rects>
      <tilted>0</tilted></_>
    <_>
      <rects>
        <_>
          18 6 2 14 -1.</_>
        <_>
          18 13 2 7 2.</_></rects>
      <tilted>0</tilted></_></features></cascade>
</opencv_storage>
