<?xml version="1.0"?>
<opencv_storage>
<stage5>
  <maxWeakCount>7</maxWeakCount>
  <stageThreshold>-2.6581938266754150e+00</stageThreshold>
  <weakClassifiers>
    <_>
      <internalNodes>
        0 -1 11363 1.8936088085174561e+00</internalNodes>
      <leafValues>
        -8.3308041095733643e-01 6.6666668653488159e-01</leafValues></_>
    <_>
      <internalNodes>
        0 -1 48652 4.5296934247016907e-01</internalNodes>
      <leafValues>
        -7.4506026506423950e-01 2.7463597059249878e-01</leafValues></_>
    <_>
      <internalNodes>
        0 -1 101420 -6.0818884521722794e-02</internalNodes>
      <leafValues>
        2.7558532357215881e-01 -7.4849236011505127e-01</leafValues></_>
    <_>
      <internalNodes>
        0 -1 37 -3.5322059411555529e-03</internalNodes>
      <leafValues>
        -8.2027620077133179e-01 2.2170704603195190e-01</leafValues></_>
    <_>
      <internalNodes>
        0 -1 134 8.7051000446081161e-03</internalNodes>
      <leafValues>
        1.9175949692726135e-01 -9.2415308952331543e-01</leafValues></_>
    <_>
      <internalNodes>
        0 -1 124299 -8.4510259330272675e-03</internalNodes>
      <leafValues>
        -8.6552435159683228e-01 1.6384717822074890e-01</leafValues></_>
    <_>
      <internalNodes>
        0 -1 9637 -2.2969184443354607e-02</internalNodes>
      <leafValues>
        -9.9229961633682251e-01 1.3840256631374359e-01</leafValues></_></weakClassifiers></stage5>
</opencv_storage>
