<?xml version="1.0"?>
<opencv_storage>
<stage4>
  <maxWeakCount>14</maxWeakCount>
  <stageThreshold>-2.2439291477203369e+00</stageThreshold>
  <weakClassifiers>
    <_>
      <internalNodes>
        0 -1 201 1.9555696249008179e+00</internalNodes>
      <leafValues>
        -8.4995341300964355e-01 6.7808932065963745e-01</leafValues></_>
    <_>
      <internalNodes>
        0 -1 7460 3.4935876727104187e-01</internalNodes>
      <leafValues>
        -5.5749958753585815e-01 4.4647210836410522e-01</leafValues></_>
    <_>
      <internalNodes>
        0 -1 11733 8.0096870660781860e-02</internalNodes>
      <leafValues>
        -4.5798295736312866e-01 4.0010696649551392e-01</leafValues></_>
    <_>
      <internalNodes>
        0 -1 14958 6.2528073787689209e-02</internalNodes>
      <leafValues>
        -3.3678594231605530e-01 5.4555988311767578e-01</leafValues></_>
    <_>
      <internalNodes>
        0 -1 1241 -3.9180919528007507e-02</internalNodes>
      <leafValues>
        -7.0867854356765747e-01 1.9894801080226898e-01</leafValues></_>
    <_>
      <internalNodes>
        0 -1 16113 4.2736120522022247e-02</internalNodes>
      <leafValues>
        1.4230553805828094e-01 -6.6012871265411377e-01</leafValues></_>
    <_>
      <internalNodes>
        0 -1 10204 2.1314889192581177e-02</internalNodes>
      <leafValues>
        1.3162411749362946e-01 -7.2562783956527710e-01</leafValues></_>
    <_>
      <internalNodes>
        0 -1 10216 -1.8936619162559509e-02</internalNodes>
      <leafValues>
        -8.4045314788818359e-01 1.1757475882768631e-01</leafValues></_>
    <_>
      <internalNodes>
        0 -1 7012 3.9175502955913544e-02</internalNodes>
      <leafValues>
        1.6511891037225723e-02 -9.0473932027816772e-01</leafValues></_>
    <_>
      <internalNodes>
        0 -1 16018 -5.6182846426963806e-02</internalNodes>
      <leafValues>
        -7.0094758272171021e-01 9.4588100910186768e-02</leafValues></_>
    <_>
      <internalNodes>
        0 -1 14269 -1.7082441598176956e-02</internalNodes>
      <leafValues>
        1.8255794048309326e-01 -5.3026086091995239e-01</leafValues></_>
    <_>
      <internalNodes>
        0 -1 8488 -2.9155891388654709e-02</internalNodes>
      <leafValues>
        -9.7718465328216553e-01 7.6574429869651794e-02</leafValues></_>
    <_>
      <internalNodes>
        0 -1 4712 4.1769377887248993e-02</internalNodes>
      <leafValues>
        -2.6330316066741943e-01 3.3224895596504211e-01</leafValues></_>
    <_>
      <internalNodes>
        0 -1 225 9.0381950139999390e-02</internalNodes>
      <leafValues>
        1.1816316843032837e-01 -8.0163109302520752e-01</leafValues></_></weakClassifiers></stage4>
</opencv_storage>
