<?xml version="1.0"?>
<opencv_storage>
<stage9>
  <maxWeakCount>42</maxWeakCount>
  <stageThreshold>-2.3335518836975098e+00</stageThreshold>
  <weakClassifiers>
    <_>
      <internalNodes>
        0 -1 89816 2.9652607440948486e-01</internalNodes>
      <leafValues>
        -6.5953397750854492e-01 6.6731142997741699e-01</leafValues></_>
    <_>
      <internalNodes>
        0 -1 108174 -5.0094556063413620e-03</internalNodes>
      <leafValues>
        4.0139627456665039e-01 -4.2411074042320251e-01</leafValues></_>
    <_>
      <internalNodes>
        0 -1 100768 9.9100440740585327e-02</internalNodes>
      <leafValues>
        -4.3025454878807068e-01 2.4494810402393341e-01</leafValues></_>
    <_>
      <internalNodes>
        0 -1 96407 2.9645538330078125e-01</internalNodes>
      <leafValues>
        -9.8023079335689545e-02 8.5465610027313232e-01</leafValues></_>
    <_>
      <internalNodes>
        0 -1 26350 -1.4524328708648682e-01</internalNodes>
      <leafValues>
        4.2090612649917603e-01 -1.9599455595016479e-01</leafValues></_>
    <_>
      <internalNodes>
        0 -1 6622 2.1090124547481537e-01</internalNodes>
      <leafValues>
        -8.1126555800437927e-02 6.5664231777191162e-01</leafValues></_>
    <_>
      <internalNodes>
        0 -1 68168 -1.8604978919029236e-01</internalNodes>
      <leafValues>
        5.4242074489593506e-01 -1.3256198167800903e-01</leafValues></_>
    <_>
      <internalNodes>
        0 -1 38574 -2.2335004806518555e-01</internalNodes>
      <leafValues>
        7.0179450511932373e-01 -8.6162760853767395e-02</leafValues></_>
    <_>
      <internalNodes>
        0 -1 34523 2.3916423320770264e-01</internalNodes>
      <leafValues>
        -1.0150203853845596e-01 7.2540003061294556e-01</leafValues></_>
    <_>
      <internalNodes>
        0 -1 61361 -1.9254506332799792e-03</internalNodes>
      <leafValues>
        3.7326037883758545e-01 -2.1014241874217987e-01</leafValues></_>
    <_>
      <internalNodes>
        0 -1 96365 2.8089743852615356e-01</internalNodes>
      <leafValues>
        -7.8895129263401031e-02 6.7608159780502319e-01</leafValues></_>
    <_>
      <internalNodes>
        0 -1 121015 -2.7543236501514912e-03</internalNodes>
      <leafValues>
        2.8034025430679321e-01 -2.2263155877590179e-01</leafValues></_>
    <_>
      <internalNodes>
        0 -1 96407 2.4628967046737671e-01</internalNodes>
      <leafValues>
        -1.3539263606071472e-01 4.9441018700599670e-01</leafValues></_>
    <_>
      <internalNodes>
        0 -1 48849 3.5523020196706057e-03</internalNodes>
      <leafValues>
        -2.3559865355491638e-01 2.4746544659137726e-01</leafValues></_>
    <_>
      <internalNodes>
        0 -1 116531 1.7202194780111313e-02</internalNodes>
      <leafValues>
        6.4021050930023193e-02 -6.3455694913864136e-01</leafValues></_>
    <_>
      <internalNodes>
        0 -1 101891 1.5174782276153564e-01</internalNodes>
      <leafValues>
        -8.1920936703681946e-02 6.6618847846984863e-01</leafValues></_>
    <_>
      <internalNodes>
        0 -1 21906 -2.4539144709706306e-02</internalNodes>
      <leafValues>
        2.0908509194850922e-01 -2.4228772521018982e-01</leafValues></_>
    <_>
      <internalNodes>
        0 -1 76846 -2.0180749706923962e-03</internalNodes>
      <leafValues>
        -8.5949867963790894e-01 7.0445068180561066e-02</leafValues></_>
    <_>
      <internalNodes>
        0 -1 59643 -9.1076754033565521e-03</internalNodes>
      <leafValues>
        7.4970895051956177e-01 -9.5841042697429657e-02</leafValues></_>
    <_>
      <internalNodes>
        0 -1 85041 -2.6734609855338931e-04</internalNodes>
      <leafValues>
        1.3330340385437012e-01 -3.8161337375640869e-01</leafValues></_>
    <_>
      <internalNodes>
        0 -1 72970 1.3478237204253674e-02</internalNodes>
      <leafValues>
        7.2902821004390717e-02 -6.1911761760711670e-01</leafValues></_>
    <_>
      <internalNodes>
        0 -1 36936 -3.9929673075675964e-03</internalNodes>
      <leafValues>
        2.1329835057258606e-01 -2.1755321323871613e-01</leafValues></_>
    <_>
      <internalNodes>
        0 -1 52089 -3.4493863582611084e-01</internalNodes>
      <leafValues>
        6.7685920000076294e-01 -8.3200864493846893e-02</leafValues></_>
    <_>
      <internalNodes>
        0 -1 751 -7.6696082949638367e-02</internalNodes>
      <leafValues>
        1.6054852306842804e-01 -3.1871792674064636e-01</leafValues></_>
    <_>
      <internalNodes>
        0 -1 93787 -1.8997263163328171e-02</internalNodes>
      <leafValues>
        3.5347026586532593e-01 -1.2997309863567352e-01</leafValues></_>
    <_>
      <internalNodes>
        0 -1 75466 -9.7286388278007507e-02</internalNodes>
      <leafValues>
        6.5831089019775391e-01 -7.2008147835731506e-02</leafValues></_>
    <_>
      <internalNodes>
        0 -1 66544 2.0972505211830139e-02</internalNodes>
      <leafValues>
        8.0853521823883057e-02 -6.1334705352783203e-01</leafValues></_>
    <_>
      <internalNodes>
        0 -1 112386 -1.7156172543764114e-02</internalNodes>
      <leafValues>
        4.7761580348014832e-01 -1.0225935280323029e-01</leafValues></_>
    <_>
      <internalNodes>
        0 -1 91461 1.4626058982685208e-03</internalNodes>
      <leafValues>
        9.9472045898437500e-02 -4.9662595987319946e-01</leafValues></_>
    <_>
      <internalNodes>
        0 -1 26656 2.4346727877855301e-02</internalNodes>
      <leafValues>
        -1.1120688170194626e-01 4.6947169303894043e-01</leafValues></_>
    <_>
      <internalNodes>
        0 -1 8480 -5.1945275627076626e-03</internalNodes>
      <leafValues>
        1.7796397209167480e-01 -2.7345034480094910e-01</leafValues></_>
    <_>
      <internalNodes>
        0 -1 9941 -1.4575103297829628e-02</internalNodes>
      <leafValues>
        -5.8089917898178101e-01 8.0590747296810150e-02</leafValues></_>
    <_>
      <internalNodes>
        0 -1 44148 -7.5034140609204769e-03</internalNodes>
      <leafValues>
        -6.4129436016082764e-01 5.3803022950887680e-02</leafValues></_>
    <_>
      <internalNodes>
        0 -1 75090 6.0489010065793991e-02</internalNodes>
      <leafValues>
        -7.6485551893711090e-02 6.5293550491333008e-01</leafValues></_>
    <_>
      <internalNodes>
        0 -1 67123 9.6778608858585358e-03</internalNodes>
      <leafValues>
        6.2208093702793121e-02 -8.0755829811096191e-01</leafValues></_>
    <_>
      <internalNodes>
        0 -1 83030 2.9894208908081055e-01</internalNodes>
      <leafValues>
        -8.2983657717704773e-02 6.0431361198425293e-01</leafValues></_>
    <_>
      <internalNodes>
        0 -1 98201 -1.0765506885945797e-03</internalNodes>
      <leafValues>
        9.4529010355472565e-02 -4.8124825954437256e-01</leafValues></_>
    <_>
      <internalNodes>
        0 -1 23734 -2.5736965239048004e-02</internalNodes>
      <leafValues>
        -7.4043399095535278e-01 4.6165704727172852e-02</leafValues></_>
    <_>
      <internalNodes>
        0 -1 37164 -7.5398047920316458e-04</internalNodes>
      <leafValues>
        2.3401844501495361e-01 -1.6970084607601166e-01</leafValues></_>
    <_>
      <internalNodes>
        0 -1 75374 -7.6283872127532959e-02</internalNodes>
      <leafValues>
        4.8201602697372437e-01 -9.2525601387023926e-02</leafValues></_>
    <_>
      <internalNodes>
        0 -1 56369 -8.0114558339118958e-02</internalNodes>
      <leafValues>
        8.1918364763259888e-01 -4.4397290796041489e-02</leafValues></_>
    <_>
      <internalNodes>
        0 -1 113421 -1.5981044853106141e-03</internalNodes>
      <leafValues>
        2.8900456428527832e-01 -1.3909271359443665e-01</leafValues></_></weakClassifiers></stage9>
</opencv_storage>
