<?xml version="1.0"?>
<opencv_storage>
<stage16>
  <maxWeakCount>79</maxWeakCount>
  <stageThreshold>-1.6289759874343872e+00</stageThreshold>
  <weakClassifiers>
    <_>
      <internalNodes>
        0 -1 117443 -2.9156701639294624e-03</internalNodes>
      <leafValues>
        2.2925264202058315e-03 -3.8812786340713501e-01</leafValues></_>
    <_>
      <internalNodes>
        0 -1 41396 1.2756964191794395e-02</internalNodes>
      <leafValues>
        -2.5762090086936951e-01 1.4683611690998077e-01</leafValues></_>
    <_>
      <internalNodes>
        0 -1 68922 1.6323444433510303e-03</internalNodes>
      <leafValues>
        -2.2591719031333923e-01 1.4840365946292877e-01</leafValues></_>
    <_>
      <internalNodes>
        0 -1 7306 -6.8097099661827087e-02</internalNodes>
      <leafValues>
        5.8441388607025146e-01 -5.0794169306755066e-02</leafValues></_>
    <_>
      <internalNodes>
        0 -1 113195 -9.8586184903979301e-03</internalNodes>
      <leafValues>
        3.5964238643646240e-01 -9.3951314687728882e-02</leafValues></_>
    <_>
      <internalNodes>
        0 -1 87451 -3.1633859872817993e-01</internalNodes>
      <leafValues>
        -6.0297602415084839e-01 4.8803638666868210e-02</leafValues></_>
    <_>
      <internalNodes>
        0 -1 213 -1.3418033719062805e-02</internalNodes>
      <leafValues>
        -5.5723923444747925e-01 7.2152450680732727e-02</leafValues></_>
    <_>
      <internalNodes>
        0 -1 94303 -3.8840532302856445e-01</internalNodes>
      <leafValues>
        6.4822691679000854e-01 -4.1448596864938736e-02</leafValues></_>
    <_>
      <internalNodes>
        0 -1 10920 -4.4043019413948059e-02</internalNodes>
      <leafValues>
        3.3219760656356812e-01 -1.0610212385654449e-01</leafValues></_>
    <_>
      <internalNodes>
        0 -1 102397 2.8538113832473755e-01</internalNodes>
      <leafValues>
        -8.5167579352855682e-02 4.4417405128479004e-01</leafValues></_>
    <_>
      <internalNodes>
        0 -1 73946 3.7109512090682983e-01</internalNodes>
      <leafValues>
        -7.6330035924911499e-02 3.9196828007698059e-01</leafValues></_>
    <_>
      <internalNodes>
        0 -1 69386 -8.1080468371510506e-03</internalNodes>
      <leafValues>
        -4.7870376706123352e-01 5.9440698474645615e-02</leafValues></_>
    <_>
      <internalNodes>
        0 -1 124873 6.6152084618806839e-03</internalNodes>
      <leafValues>
        6.9372035562992096e-02 -4.5983183383941650e-01</leafValues></_>
    <_>
      <internalNodes>
        0 -1 89427 3.6104223132133484e-01</internalNodes>
      <leafValues>
        -5.4874025285243988e-02 6.2591838836669922e-01</leafValues></_>
    <_>
      <internalNodes>
        0 -1 124405 5.0155463395640254e-04</internalNodes>
      <leafValues>
        -1.3135707378387451e-01 2.0704753696918488e-01</leafValues></_>
    <_>
      <internalNodes>
        0 -1 93642 9.3719903379678726e-03</internalNodes>
      <leafValues>
        6.2543474137783051e-02 -4.0300482511520386e-01</leafValues></_>
    <_>
      <internalNodes>
        0 -1 64141 -1.8640672788023949e-02</internalNodes>
      <leafValues>
        -5.7107293605804443e-01 4.3301936239004135e-02</leafValues></_>
    <_>
      <internalNodes>
        0 -1 105595 -3.4581474028527737e-04</internalNodes>
      <leafValues>
        2.8678476810455322e-01 -9.6206784248352051e-02</leafValues></_>
    <_>
      <internalNodes>
        0 -1 113010 -6.1165140941739082e-03</internalNodes>
      <leafValues>
        -8.5546416044235229e-01 2.1431367844343185e-02</leafValues></_>
    <_>
      <internalNodes>
        0 -1 11074 1.4633432030677795e-02</internalNodes>
      <leafValues>
        2.8088215738534927e-02 -6.9364839792251587e-01</leafValues></_>
    <_>
      <internalNodes>
        0 -1 119379 9.5844291150569916e-02</internalNodes>
      <leafValues>
        3.4365288913249969e-02 -5.7340365648269653e-01</leafValues></_>
    <_>
      <internalNodes>
        0 -1 58 1.2132563628256321e-02</internalNodes>
      <leafValues>
        3.5843782126903534e-02 -5.5457490682601929e-01</leafValues></_>
    <_>
      <internalNodes>
        0 -1 33392 -1.7038163542747498e-01</internalNodes>
      <leafValues>
        4.7148910164833069e-01 -5.4181985557079315e-02</leafValues></_>
    <_>
      <internalNodes>
        0 -1 97481 -7.1493198629468679e-04</internalNodes>
      <leafValues>
        1.0871281474828720e-01 -2.2592969238758087e-01</leafValues></_>
    <_>
      <internalNodes>
        0 -1 85444 3.4526193048804998e-03</internalNodes>
      <leafValues>
        9.1181986033916473e-02 -3.1629598140716553e-01</leafValues></_>
    <_>
      <internalNodes>
        0 -1 14133 4.4048024574294686e-04</internalNodes>
      <leafValues>
        1.1745250970125198e-01 -2.0572929084300995e-01</leafValues></_>
    <_>
      <internalNodes>
        0 -1 113146 1.4369257260113955e-03</internalNodes>
      <leafValues>
        -6.2496639788150787e-02 3.6537742614746094e-01</leafValues></_>
    <_>
      <internalNodes>
        0 -1 121071 -1.8312409520149231e-02</internalNodes>
      <leafValues>
        -7.8479522466659546e-01 2.8524361550807953e-02</leafValues></_>
    <_>
      <internalNodes>
        0 -1 123027 -9.7637774888426065e-04</internalNodes>
      <leafValues>
        2.2879388928413391e-01 -1.0557674616575241e-01</leafValues></_>
    <_>
      <internalNodes>
        0 -1 118612 2.3824479430913925e-02</internalNodes>
      <leafValues>
        5.1439259201288223e-02 -4.3474292755126953e-01</leafValues></_>
    <_>
      <internalNodes>
        0 -1 498 -1.0236181318759918e-01</internalNodes>
      <leafValues>
        -6.2591862678527832e-01 3.4897759556770325e-02</leafValues></_>
    <_>
      <internalNodes>
        0 -1 2 3.2458442728966475e-04</internalNodes>
      <leafValues>
        -8.6045704782009125e-02 2.5874006748199463e-01</leafValues></_>
    <_>
      <internalNodes>
        0 -1 45800 1.4801531098783016e-02</internalNodes>
      <leafValues>
        2.2235302254557610e-02 -8.8278198242187500e-01</leafValues></_>
    <_>
      <internalNodes>
        0 -1 73888 -7.3101152665913105e-03</internalNodes>
      <leafValues>
        -4.9109199643135071e-01 3.3635918051004410e-02</leafValues></_>
    <_>
      <internalNodes>
        0 -1 66138 -1.9069235771894455e-02</internalNodes>
      <leafValues>
        1.6670164465904236e-01 -1.3413226604461670e-01</leafValues></_>
    <_>
      <internalNodes>
        0 -1 41312 -1.2389800976961851e-03</internalNodes>
      <leafValues>
        3.5368195176124573e-01 -7.4416428804397583e-02</leafValues></_>
    <_>
      <internalNodes>
        0 -1 113781 -4.0643895044922829e-03</internalNodes>
      <leafValues>
        -6.1697328090667725e-01 3.3650353550910950e-02</leafValues></_>
    <_>
      <internalNodes>
        0 -1 111684 -7.6781779527664185e-02</internalNodes>
      <leafValues>
        5.0699847936630249e-01 -4.3946091085672379e-02</leafValues></_>
    <_>
      <internalNodes>
        0 -1 118676 -3.8341153413057327e-03</internalNodes>
      <leafValues>
        -1.8621006608009338e-01 1.4077088236808777e-01</leafValues></_>
    <_>
      <internalNodes>
        0 -1 70729 -1.2461449950933456e-02</internalNodes>
      <leafValues>
        -4.5125275850296021e-01 4.4882535934448242e-02</leafValues></_>
    <_>
      <internalNodes>
        0 -1 117399 9.1640856117010117e-03</internalNodes>
      <leafValues>
        -8.9315764605998993e-02 2.6202520728111267e-01</leafValues></_>
    <_>
      <internalNodes>
        0 -1 32720 1.0551282763481140e-01</internalNodes>
      <leafValues>
        -7.4033312499523163e-02 3.2515129446983337e-01</leafValues></_>
    <_>
      <internalNodes>
        0 -1 10851 6.4706681296229362e-03</internalNodes>
      <leafValues>
        4.8542778939008713e-02 -4.9203196167945862e-01</leafValues></_>
    <_>
      <internalNodes>
        0 -1 969 9.2373136430978775e-04</internalNodes>
      <leafValues>
        -8.1555867195129395e-01 2.4240775033831596e-02</leafValues></_>
    <_>
      <internalNodes>
        0 -1 76044 -4.2476782202720642e-01</internalNodes>
      <leafValues>
        6.7118990421295166e-01 -4.9147654324769974e-02</leafValues></_>
    <_>
      <internalNodes>
        0 -1 117684 -2.5308416225016117e-03</internalNodes>
      <leafValues>
        -5.6060814857482910e-01 4.7341790050268173e-02</leafValues></_>
    <_>
      <internalNodes>
        0 -1 79463 4.5971698127686977e-03</internalNodes>
      <leafValues>
        4.6944744884967804e-02 -4.1201826930046082e-01</leafValues></_>
    <_>
      <internalNodes>
        0 -1 82729 -4.9417847767472267e-03</internalNodes>
      <leafValues>
        4.7386014461517334e-01 -4.8203188925981522e-02</leafValues></_>
    <_>
      <internalNodes>
        0 -1 49528 1.0063245426863432e-03</internalNodes>
      <leafValues>
        1.5658648312091827e-01 -1.6571451723575592e-01</leafValues></_>
    <_>
      <internalNodes>
        0 -1 56844 -1.1234201956540346e-03</internalNodes>
      <leafValues>
        -2.6253980398178101e-01 8.5238121449947357e-02</leafValues></_>
    <_>
      <internalNodes>
        0 -1 26742 -7.1910601109266281e-03</internalNodes>
      <leafValues>
        -6.6026580333709717e-01 3.3998608589172363e-02</leafValues></_>
    <_>
      <internalNodes>
        0 -1 113520 -3.8356164004653692e-03</internalNodes>
      <leafValues>
        -6.4715647697448730e-01 3.0894434079527855e-02</leafValues></_>
    <_>
      <internalNodes>
        0 -1 55702 -2.5984257808886468e-04</internalNodes>
      <leafValues>
        2.5297647714614868e-01 -9.1824308037757874e-02</leafValues></_>
    <_>
      <internalNodes>
        0 -1 78237 2.6158434338867664e-03</internalNodes>
      <leafValues>
        9.7940184175968170e-02 -2.0532728731632233e-01</leafValues></_>
    <_>
      <internalNodes>
        0 -1 119995 1.1281831562519073e-01</internalNodes>
      <leafValues>
        -1.2366116791963577e-01 2.2536627948284149e-01</leafValues></_>
    <_>
      <internalNodes>
        0 -1 34817 -1.3990955427289009e-02</internalNodes>
      <leafValues>
        4.0530613064765930e-01 -5.2469253540039062e-02</leafValues></_>
    <_>
      <internalNodes>
        0 -1 91023 1.7177164554595947e-03</internalNodes>
      <leafValues>
        1.3153569400310516e-01 -1.7341537773609161e-01</leafValues></_>
    <_>
      <internalNodes>
        0 -1 9939 -5.6132292374968529e-03</internalNodes>
      <leafValues>
        -4.6480488777160645e-01 4.3732281774282455e-02</leafValues></_>
    <_>
      <internalNodes>
        0 -1 83277 2.9822716489434242e-02</internalNodes>
      <leafValues>
        -3.9846345782279968e-02 5.7970225811004639e-01</leafValues></_>
    <_>
      <internalNodes>
        0 -1 83265 -1.3794386759400368e-03</internalNodes>
      <leafValues>
        -2.2621998190879822e-01 9.4851844012737274e-02</leafValues></_>
    <_>
      <internalNodes>
        0 -1 83265 9.5825502648949623e-04</internalNodes>
      <leafValues>
        1.0852322727441788e-01 -2.3108625411987305e-01</leafValues></_>
    <_>
      <internalNodes>
        0 -1 9894 9.9406158551573753e-04</internalNodes>
      <leafValues>
        1.2773701548576355e-01 -1.8235953152179718e-01</leafValues></_>
    <_>
      <internalNodes>
        0 -1 6358 -7.1197187935467809e-05</internalNodes>
      <leafValues>
        1.6940030455589294e-01 -1.2759865820407867e-01</leafValues></_>
    <_>
      <internalNodes>
        0 -1 102658 -9.5811439678072929e-04</internalNodes>
      <leafValues>
        8.3070196211338043e-02 -2.4938251078128815e-01</leafValues></_>
    <_>
      <internalNodes>
        0 -1 124913 1.2120541185140610e-02</internalNodes>
      <leafValues>
        3.1899739056825638e-02 -6.7293179035186768e-01</leafValues></_>
    <_>
      <internalNodes>
        0 -1 75781 -6.0493266209959984e-04</internalNodes>
      <leafValues>
        1.8845348060131073e-01 -1.1666249483823776e-01</leafValues></_>
    <_>
      <internalNodes>
        0 -1 68978 -6.2374388799071312e-03</internalNodes>
      <leafValues>
        -3.9592707157135010e-01 6.2569670379161835e-02</leafValues></_>
    <_>
      <internalNodes>
        0 -1 55702 2.3858738131821156e-04</internalNodes>
      <leafValues>
        -8.1407301127910614e-02 2.7118870615959167e-01</leafValues></_>
    <_>
      <internalNodes>
        0 -1 118948 4.1506178677082062e-02</internalNodes>
      <leafValues>
        2.7920188382267952e-02 -7.2365909814834595e-01</leafValues></_>
    <_>
      <internalNodes>
        0 -1 93973 -6.4091354608535767e-02</internalNodes>
      <leafValues>
        -7.1516871452331543e-01 2.2216888144612312e-02</leafValues></_>
    <_>
      <internalNodes>
        0 -1 121538 5.6062772637233138e-04</internalNodes>
      <leafValues>
        -7.9726114869117737e-02 2.4824926257133484e-01</leafValues></_>
    <_>
      <internalNodes>
        0 -1 47995 -2.0314492285251617e-03</internalNodes>
      <leafValues>
        -2.3860809206962585e-01 9.1792628169059753e-02</leafValues></_>
    <_>
      <internalNodes>
        0 -1 94904 6.2943599186837673e-04</internalNodes>
      <leafValues>
        -5.5003721266984940e-02 3.7857037782669067e-01</leafValues></_>
    <_>
      <internalNodes>
        0 -1 46979 -9.3920895596966147e-04</internalNodes>
      <leafValues>
        -1.3862355053424835e-01 1.5196329355239868e-01</leafValues></_>
    <_>
      <internalNodes>
        0 -1 57075 -3.4937924146652222e-01</internalNodes>
      <leafValues>
        3.1033790111541748e-01 -6.5538242459297180e-02</leafValues></_>
    <_>
      <internalNodes>
        0 -1 72498 -3.6512506194412708e-03</internalNodes>
      <leafValues>
        1.0552670061588287e-01 -2.2443054616451263e-01</leafValues></_>
    <_>
      <internalNodes>
        0 -1 83687 2.1831071935594082e-03</internalNodes>
      <leafValues>
        1.1064548790454865e-01 -1.9469606876373291e-01</leafValues></_>
    <_>
      <internalNodes>
        0 -1 48675 7.6106119155883789e-01</internalNodes>
      <leafValues>
        -2.4315059185028076e-02 8.7887501716613770e-01</leafValues></_>
    <_>
      <internalNodes>
        0 -1 79085 -1.9860001280903816e-02</internalNodes>
      <leafValues>
        -1.8639782071113586e-01 1.4237931370735168e-01</leafValues></_></weakClassifiers></stage16>
</opencv_storage>
