<?xml version="1.0"?>
<opencv_storage>
<stage19>
  <maxWeakCount>57</maxWeakCount>
  <stageThreshold>-1.9757734537124634e+00</stageThreshold>
  <weakClassifiers>
    <_>
      <internalNodes>
        0 -1 101911 3.1015849113464355e-01</internalNodes>
      <leafValues>
        -6.5290385484695435e-01 1.2579415738582611e-01</leafValues></_>
    <_>
      <internalNodes>
        0 -1 67203 9.3325935304164886e-03</internalNodes>
      <leafValues>
        -3.4098348021507263e-01 1.5081313252449036e-01</leafValues></_>
    <_>
      <internalNodes>
        0 -1 10535 2.8745126724243164e-01</internalNodes>
      <leafValues>
        -9.4118848443031311e-02 6.4245367050170898e-01</leafValues></_>
    <_>
      <internalNodes>
        0 -1 60037 3.9168026298284531e-02</internalNodes>
      <leafValues>
        -1.2517891824245453e-01 4.4768655300140381e-01</leafValues></_>
    <_>
      <internalNodes>
        0 -1 88863 -1.1296302825212479e-01</internalNodes>
      <leafValues>
        5.5073606967926025e-01 -7.7629774808883667e-02</leafValues></_>
    <_>
      <internalNodes>
        0 -1 8883 -1.6644157469272614e-02</internalNodes>
      <leafValues>
        1.9194756448268890e-01 -2.5276064872741699e-01</leafValues></_>
    <_>
      <internalNodes>
        0 -1 76938 -2.7510402724146843e-03</internalNodes>
      <leafValues>
        2.6147946715354919e-01 -1.4548636972904205e-01</leafValues></_>
    <_>
      <internalNodes>
        0 -1 43050 1.9067537784576416e-01</internalNodes>
      <leafValues>
        -1.3579368591308594e-01 3.7800267338752747e-01</leafValues></_>
    <_>
      <internalNodes>
        0 -1 85834 -1.1986209079623222e-02</internalNodes>
      <leafValues>
        1.7679303884506226e-01 -2.0725347101688385e-01</leafValues></_>
    <_>
      <internalNodes>
        0 -1 100807 -1.0032434016466141e-01</internalNodes>
      <leafValues>
        4.9593809247016907e-01 -8.7703265249729156e-02</leafValues></_>
    <_>
      <internalNodes>
        0 -1 84172 2.1256830077618361e-03</internalNodes>
      <leafValues>
        7.4829734861850739e-02 -4.6987709403038025e-01</leafValues></_>
    <_>
      <internalNodes>
        0 -1 115593 -6.1891588848084211e-04</internalNodes>
      <leafValues>
        2.7639013528823853e-01 -1.1798087507486343e-01</leafValues></_>
    <_>
      <internalNodes>
        0 -1 34205 -5.7630222290754318e-03</internalNodes>
      <leafValues>
        2.8894850611686707e-01 -1.1945651471614838e-01</leafValues></_>
    <_>
      <internalNodes>
        0 -1 15965 -9.2661119997501373e-02</internalNodes>
      <leafValues>
        1.0992242395877838e-01 -3.2186898589134216e-01</leafValues></_>
    <_>
      <internalNodes>
        0 -1 52462 -1.1622712016105652e-02</internalNodes>
      <leafValues>
        -7.9705888032913208e-01 2.8742320835590363e-02</leafValues></_>
    <_>
      <internalNodes>
        0 -1 68156 7.7245108783245087e-02</internalNodes>
      <leafValues>
        -7.6428860425949097e-02 4.9168038368225098e-01</leafValues></_>
    <_>
      <internalNodes>
        0 -1 83691 -7.9627800732851028e-03</internalNodes>
      <leafValues>
        -7.5133043527603149e-01 4.7412641346454620e-02</leafValues></_>
    <_>
      <internalNodes>
        0 -1 75574 3.4173959493637085e-01</internalNodes>
      <leafValues>
        -4.6043146401643753e-02 7.7355337142944336e-01</leafValues></_>
    <_>
      <internalNodes>
        0 -1 68727 -1.4831492304801941e-01</internalNodes>
      <leafValues>
        3.5932663083076477e-01 -7.5703702867031097e-02</leafValues></_>
    <_>
      <internalNodes>
        0 -1 38630 -2.6577660441398621e-01</internalNodes>
      <leafValues>
        4.1416278481483459e-01 -8.0708436667919159e-02</leafValues></_>
    <_>
      <internalNodes>
        0 -1 62611 -2.0929286256432533e-03</internalNodes>
      <leafValues>
        2.8113052248954773e-01 -1.2536749243736267e-01</leafValues></_>
    <_>
      <internalNodes>
        0 -1 89836 -1.9040983915328979e-01</internalNodes>
      <leafValues>
        4.2892023921012878e-01 -7.4913010001182556e-02</leafValues></_>
    <_>
      <internalNodes>
        0 -1 112833 1.8077461048960686e-02</internalNodes>
      <leafValues>
        3.9085648953914642e-02 -7.4334275722503662e-01</leafValues></_>
    <_>
      <internalNodes>
        0 -1 92600 4.2277397587895393e-03</internalNodes>
      <leafValues>
        3.3629443496465683e-02 -6.8627893924713135e-01</leafValues></_>
    <_>
      <internalNodes>
        0 -1 77371 2.2345276549458504e-02</internalNodes>
      <leafValues>
        3.1468421220779419e-02 -6.9727206230163574e-01</leafValues></_>
    <_>
      <internalNodes>
        0 -1 76862 -4.5344070531427860e-03</internalNodes>
      <leafValues>
        -6.5090626478195190e-01 3.7355069071054459e-02</leafValues></_>
    <_>
      <internalNodes>
        0 -1 112791 3.1727038323879242e-02</internalNodes>
      <leafValues>
        -1.0395099967718124e-01 2.6387208700180054e-01</leafValues></_>
    <_>
      <internalNodes>
        0 -1 65299 -7.2440430521965027e-02</internalNodes>
      <leafValues>
        2.6990538835525513e-01 -1.3196495175361633e-01</leafValues></_>
    <_>
      <internalNodes>
        0 -1 90543 -1.5657348558306694e-03</internalNodes>
      <leafValues>
        3.0574446916580200e-01 -1.0547544062137604e-01</leafValues></_>
    <_>
      <internalNodes>
        0 -1 68200 -1.6377478837966919e-01</internalNodes>
      <leafValues>
        4.4624245166778564e-01 -6.9686762988567352e-02</leafValues></_>
    <_>
      <internalNodes>
        0 -1 38455 -1.6033379733562469e-01</internalNodes>
      <leafValues>
        -5.1525217294692993e-01 5.2506685256958008e-02</leafValues></_>
    <_>
      <internalNodes>
        0 -1 96933 1.3787761330604553e-01</internalNodes>
      <leafValues>
        -7.3795013129711151e-02 4.2112112045288086e-01</leafValues></_>
    <_>
      <internalNodes>
        0 -1 112400 -9.5818955451250076e-03</internalNodes>
      <leafValues>
        1.8441474437713623e-01 -1.6666747629642487e-01</leafValues></_>
    <_>
      <internalNodes>
        0 -1 93080 -2.4424353614449501e-03</internalNodes>
      <leafValues>
        3.7727820873260498e-01 -8.4946639835834503e-02</leafValues></_>
    <_>
      <internalNodes>
        0 -1 3961 -3.5513132810592651e-01</internalNodes>
      <leafValues>
        -1. 2.4039698764681816e-02</leafValues></_>
    <_>
      <internalNodes>
        0 -1 114511 -2.0491150207817554e-03</internalNodes>
      <leafValues>
        1.3789401948451996e-01 -1.9215913116931915e-01</leafValues></_>
    <_>
      <internalNodes>
        0 -1 96360 2.7403825521469116e-01</internalNodes>
      <leafValues>
        -3.7742208689451218e-02 7.4956452846527100e-01</leafValues></_>
    <_>
      <internalNodes>
        0 -1 112111 -8.5955150425434113e-03</internalNodes>
      <leafValues>
        -6.5086305141448975e-01 4.5376576483249664e-02</leafValues></_>
    <_>
      <internalNodes>
        0 -1 102982 -1.2055141851305962e-02</internalNodes>
      <leafValues>
        -5.0888019800186157e-01 4.3155342340469360e-02</leafValues></_>
    <_>
      <internalNodes>
        0 -1 85044 2.0229499787092209e-03</internalNodes>
      <leafValues>
        5.8413110673427582e-02 -4.3104726076126099e-01</leafValues></_>
    <_>
      <internalNodes>
        0 -1 27054 -1.4856172725558281e-02</internalNodes>
      <leafValues>
        -6.1525827646255493e-01 3.7220992147922516e-02</leafValues></_>
    <_>
      <internalNodes>
        0 -1 17911 -1.5114028006792068e-02</internalNodes>
      <leafValues>
        -6.8750488758087158e-01 3.7941630929708481e-02</leafValues></_>
    <_>
      <internalNodes>
        0 -1 122288 -5.2642892114818096e-04</internalNodes>
      <leafValues>
        2.8360903263092041e-01 -1.0452631860971451e-01</leafValues></_>
    <_>
      <internalNodes>
        0 -1 12180 -7.4226940050721169e-03</internalNodes>
      <leafValues>
        2.3460167646408081e-01 -1.0634974390268326e-01</leafValues></_>
    <_>
      <internalNodes>
        0 -1 83885 2.2455472499132156e-03</internalNodes>
      <leafValues>
        1.7516332864761353e-01 -1.5772570669651031e-01</leafValues></_>
    <_>
      <internalNodes>
        0 -1 82819 3.9782185922376812e-04</internalNodes>
      <leafValues>
        -3.4810867905616760e-01 7.4090987443923950e-02</leafValues></_>
    <_>
      <internalNodes>
        0 -1 109207 5.0897961482405663e-03</internalNodes>
      <leafValues>
        -1.2357711791992188e-01 2.3026421666145325e-01</leafValues></_>
    <_>
      <internalNodes>
        0 -1 83721 2.5511831045150757e-03</internalNodes>
      <leafValues>
        -1.4377060532569885e-01 2.2923530638217926e-01</leafValues></_>
    <_>
      <internalNodes>
        0 -1 50811 1.1707022786140442e-01</internalNodes>
      <leafValues>
        -9.6214257180690765e-02 3.0211916565895081e-01</leafValues></_>
    <_>
      <internalNodes>
        0 -1 67533 2.7488142251968384e-02</internalNodes>
      <leafValues>
        3.7741292268037796e-02 -6.9009506702423096e-01</leafValues></_>
    <_>
      <internalNodes>
        0 -1 119299 8.3153378218412399e-03</internalNodes>
      <leafValues>
        2.3776184767484665e-02 -8.0467826128005981e-01</leafValues></_>
    <_>
      <internalNodes>
        0 -1 70161 2.2590588778257370e-02</internalNodes>
      <leafValues>
        2.2749284282326698e-02 -8.6330479383468628e-01</leafValues></_>
    <_>
      <internalNodes>
        0 -1 58110 -3.7248156964778900e-02</internalNodes>
      <leafValues>
        -6.9871586561203003e-01 2.7981387451291084e-02</leafValues></_>
    <_>
      <internalNodes>
        0 -1 76604 -1.5136420726776123e-01</internalNodes>
      <leafValues>
        5.2577149868011475e-01 -5.3904768079519272e-02</leafValues></_>
    <_>
      <internalNodes>
        0 -1 53653 -2.1811593323945999e-02</internalNodes>
      <leafValues>
        -6.9225919246673584e-01 4.0601592510938644e-02</leafValues></_>
    <_>
      <internalNodes>
        0 -1 124758 -1.0615315288305283e-02</internalNodes>
      <leafValues>
        -6.6010034084320068e-01 3.1571593135595322e-02</leafValues></_>
    <_>
      <internalNodes>
        0 -1 118323 -6.3307094387710094e-04</internalNodes>
      <leafValues>
        2.6756349205970764e-01 -1.1387141793966293e-01</leafValues></_></weakClassifiers></stage19>
</opencv_storage>
